,Enc. Variable 0,Enc. Variable 1,Enc. Variable 2,Enc. Variable 3,Enc. Variable 4,Enc. Variable 5,Enc. Variable 6,Enc. Variable 7,Enc. Variable 8,Enc. Variable 9,Enc. Variable 10,Enc. Variable 11,Enc. Variable 12,Enc. Variable 13,Enc. Variable 14,Enc. Variable 15
sub-477665_fdg_template_reg_mcalt_SyN_v20221013_4,2.820143,-2.7999673,-4.2671647,5.408263,-1.8968323,4.432715,-3.970094,-8.575658,4.266336,-5.811629,-3.5805595,3.2957602,3.74992,-3.0905879,-1.330533,0.66988224
sub-615748_fdg_template_reg_mcalt_SyN_v20221013_8,1.6872811,-3.4843006,-4.257572,4.227287,-2.3139155,4.6679077,-3.7434125,-8.843345,3.4387677,-6.1817565,-3.6132445,2.8853717,3.77224,-2.99527,-2.0669887,0.6522535
sub-449666_fdg_template_reg_mcalt_SyN_v20221013_1006,1.800887,-3.6255121,-4.5201545,4.3303065,-2.2415588,4.8105345,-3.6238098,-8.744159,3.6766999,-6.20412,-3.3566804,2.9369497,3.9368196,-2.5679262,-2.1179428,0.92113024
sub-510219_fdg_template_reg_mcalt_SyN_v20221013_1005,1.824473,-3.2315543,-4.5372868,3.8574207,-2.0293958,4.459823,-4.1235323,-8.688,3.5349798,-6.0849314,-3.7107058,2.7340097,4.150905,-3.2626774,-2.2738585,0.5304191
sub-230909_fdg_template_reg_mcalt_SyN_v20221013_4,2.1226037,-3.624772,-4.2013674,4.2988763,-2.467861,4.56325,-4.0734057,-8.593626,3.6319823,-6.4087815,-3.479419,2.7101033,3.8790197,-2.7449028,-1.9112356,0.6534241
sub-236418_fdg_template_reg_mcalt_SyN_v20221013_7,1.6564239,-3.4268425,-4.34729,4.263936,-2.2255092,4.777217,-3.683289,-9.152306,3.4594357,-6.120931,-3.5189893,2.987797,3.7125177,-3.0010388,-1.9909881,0.72402644
sub-482448_fdg_template_reg_mcalt_SyN_v20221013_4,2.2745934,-3.2202172,-4.33778,4.426249,-2.1330245,4.245984,-4.3872633,-8.778019,3.7331738,-6.1141233,-3.5586226,2.898174,3.93312,-2.8920956,-2.0521195,0.69841784
sub-72095_fdg_template_reg_mcalt_SyN_v20221013_8,2.2061546,-3.5047672,-4.5237775,3.920444,-2.5919092,4.5889964,-3.7551935,-8.303877,3.6790338,-6.3073683,-3.7370024,2.8844504,4.0940304,-2.383841,-1.8982867,1.1930695
sub-482922_fdg_template_reg_mcalt_SyN_v20221013_1007,2.2438586,-3.195646,-4.36754,3.943188,-2.3968837,4.586473,-4.089191,-8.072089,3.876128,-6.391314,-3.460878,2.9775186,4.3634505,-2.7962713,-2.0608897,1.0783536
sub-714854_fdg_template_reg_mcalt_SyN_v20221013_1010,1.8846142,-3.6821258,-4.5214257,4.683784,-2.2852063,4.630301,-3.6259782,-9.026736,3.4691706,-6.1003294,-3.4303703,3.167151,3.7369716,-2.8667977,-2.2680957,0.87886775
sub-186554_fdg_template_reg_mcalt_SyN_v20221013_12,1.880741,-3.0341966,-4.2313566,4.1230226,-2.5349965,4.185912,-4.0511894,-8.96185,3.5753174,-6.112905,-3.9752352,2.7640486,3.8401492,-2.6406717,-2.0027347,0.6511864
sub-850564_fdg_template_reg_mcalt_SyN_v20221013_120,1.7577302,-3.43986,-4.1065445,4.311518,-2.317276,4.615171,-3.9804728,-8.555299,3.5022132,-6.3079195,-3.569655,2.7421768,3.938322,-2.8729148,-2.0993855,0.6438024
sub-370479_fdg_template_reg_mcalt_SyN_v20221013_1009,1.8796339,-3.5704975,-4.7517657,4.261646,-2.473923,4.8607426,-3.0165365,-8.940513,3.8635666,-6.297964,-3.3842278,3.206151,3.8156664,-2.121426,-1.9158257,1.2685767
sub-465166_fdg_template_reg_mcalt_SyN_v20221013_1008,1.8156023,-3.4769087,-3.937609,4.1306496,-2.861633,4.355984,-3.7911608,-8.814235,3.37103,-6.5329933,-3.8850193,2.9508312,3.7657084,-2.6750543,-2.1527534,0.6401565
sub-760253_fdg_template_reg_mcalt_SyN_v20221013_1009,1.6088302,-3.6229548,-4.2517304,4.6782217,-2.2365687,4.6375947,-3.615068,-9.374975,3.3218317,-6.096489,-3.5610929,3.1856124,3.532779,-2.9382524,-2.2366104,0.6397776
sub-690581_fdg_template_reg_mcalt_SyN_v20221013_120,1.6892872,-3.541148,-4.3300223,4.6065426,-2.2220416,4.71742,-3.6437497,-9.067131,3.567402,-6.1753254,-3.4783409,3.1550891,3.6928911,-2.7813742,-2.078506,0.713763
sub-214130_fdg_template_reg_mcalt_SyN_v20221013_4,1.8819526,-3.4564404,-4.367354,3.957938,-2.3112636,4.2930346,-4.1065054,-8.726866,3.2939541,-6.020191,-3.8516839,2.9562027,3.9605756,-3.0618925,-2.1457717,0.6709259
sub-57830_fdg_template_reg_mcalt_SyN_v20221013_12,1.3895057,-3.3937674,-4.836329,4.437024,-2.372401,4.3878365,-3.497912,-9.8356085,3.446786,-5.883068,-3.5269213,3.1670148,3.5014658,-2.589652,-2.4315655,0.7882626
sub-323754_fdg_template_reg_mcalt_SyN_v20221013_1007,1.1614159,-3.5869825,-5.178468,3.7712572,-2.7406774,3.880575,-3.5135882,-10.3449745,2.5760715,-5.4377165,-4.149674,3.3384795,3.72873,-2.745791,-2.7232072,0.42892045
sub-474487_fdg_template_reg_mcalt_SyN_v20221013_1007,1.3850504,-3.7817242,-4.095779,4.870408,-2.5248811,4.720334,-3.3885915,-9.406742,3.3443413,-6.184201,-3.4783494,3.2031276,3.3983128,-2.561909,-2.1265073,0.6679511
sub-313065_fdg_template_reg_mcalt_SyN_v20221013_12,1.4350969,-3.4250753,-3.869554,4.5650177,-2.131945,4.7057357,-3.5183723,-9.187707,3.26947,-6.369138,-3.5722225,3.3651922,3.759229,-2.983704,-2.3035004,0.32210255
sub-652993_fdg_template_reg_mcalt_SyN_v20221013_1009,1.7348698,-3.3792334,-4.629347,4.42392,-1.9699583,4.596377,-3.9486,-9.179492,3.4009058,-5.922222,-3.302333,3.0099003,3.6024268,-3.5504632,-2.5453675,0.38728797
sub-480545_fdg_template_reg_mcalt_SyN_v20221013_1008,1.6256548,-3.46475,-4.48626,4.132811,-2.507823,4.627017,-3.5653925,-9.07064,3.473153,-6.2809896,-3.6520534,3.1951637,3.6632974,-2.5660722,-2.1336353,0.84393513
sub-440126_fdg_template_reg_mcalt_SyN_v20221013_1005,1.8478035,-3.3059986,-4.078252,4.3860326,-2.1299088,4.6263957,-4.00319,-8.639796,3.4587638,-6.3672385,-3.519659,3.014067,4.013154,-3.3255339,-2.431516,0.40021953
sub-399940_fdg_template_reg_mcalt_SyN_v20221013_1009,1.7154212,-3.5056343,-4.0607743,4.4592547,-2.4780095,4.5714817,-3.636738,-9.18963,3.5699604,-6.4011216,-3.4795763,3.2121017,3.786513,-2.4437609,-2.1249988,0.7263598
sub-379727_fdg_template_reg_mcalt_SyN_v20221013_7,1.7595828,-3.7377782,-4.374565,4.6585283,-1.8408,5.0878215,-3.2815738,-9.043922,3.6149116,-6.342287,-3.039947,3.5154965,3.7568402,-2.7135289,-2.0955203,0.886235
sub-154925_fdg_template_reg_mcalt_SyN_v20221013_1007,1.7863677,-3.6271648,-3.754091,4.4021873,-2.5214975,4.5817046,-3.7324383,-8.752463,3.54895,-6.5016055,-3.6344812,3.0384014,3.7907307,-2.6806421,-2.094658,0.4846683
sub-65150_fdg_template_reg_mcalt_SyN_v20221013_5,1.5368917,-3.4444492,-4.274527,4.2750444,-2.4284,4.802106,-3.6930106,-9.077284,3.564206,-6.3564463,-3.5330205,3.0406408,3.8266945,-2.7075443,-2.3718748,0.9327743
sub-541474_fdg_template_reg_mcalt_SyN_v20221013_12,1.4220558,-3.5773945,-4.1771708,4.3785005,-2.2239966,4.6178813,-3.4103827,-9.423387,3.2370782,-6.3144975,-3.4303148,3.3729932,3.6313221,-2.8796477,-2.2256072,0.55644643
sub-813606_fdg_template_reg_mcalt_SyN_v20221013_1007,1.5673369,-3.7093034,-4.198017,4.198725,-2.5394604,4.6927485,-3.4825513,-9.136686,3.4863746,-6.716042,-3.424689,3.2934265,3.691273,-2.5062642,-2.163929,1.018383
sub-381869_fdg_template_reg_mcalt_SyN_v20221013_1008,1.6063249,-3.5809057,-3.8975725,4.4205565,-2.3081422,4.722367,-3.7018838,-8.903976,3.3722253,-6.4732485,-3.7099764,3.0738962,3.7392614,-3.0138702,-2.099287,0.43026042
sub-984450_fdg_template_reg_mcalt_SyN_v20221013_12,1.4997984,-3.6692529,-4.783179,4.7669735,-2.2302363,4.645106,-3.3766124,-9.7168455,3.5731497,-5.955088,-3.1690755,3.288246,3.3996415,-2.424785,-2.267581,0.72075886
sub-818887_fdg_template_reg_mcalt_SyN_v20221013_1006,2.0459666,-3.848748,-4.276606,4.439633,-2.4106162,4.5350885,-3.8982072,-8.631966,3.5662668,-6.4227824,-3.2255607,2.817505,3.800616,-2.6890306,-2.0425367,0.76784986
sub-213856_fdg_template_reg_mcalt_SyN_v20221013_12,2.2003047,-3.179921,-4.2941704,5.1124625,-2.1575668,4.6344833,-3.7274528,-8.936714,3.9709983,-6.078526,-3.526396,3.279833,3.5814092,-2.7668345,-1.8691813,1.032572
sub-291608_fdg_template_reg_mcalt_SyN_v20221013_1005,1.5313237,-3.8101423,-4.5256214,4.7255116,-1.9974613,4.7493854,-3.4042783,-9.4374,3.2757552,-6.131765,-3.0835872,3.4023833,3.4967318,-2.9267838,-2.5007105,0.51197916
sub-619240_fdg_template_reg_mcalt_SyN_v20221013_5,1.6140113,-3.6749434,-4.2488265,4.6259747,-2.3500726,4.7544146,-3.2641957,-9.2535,3.4990897,-6.3119884,-3.3418653,3.338809,3.5603278,-2.6120412,-2.070981,0.68355906
sub-548830_fdg_template_reg_mcalt_SyN_v20221013_1007,1.7975258,-3.4678357,-4.442368,4.6570907,-2.1726682,4.732118,-3.477889,-9.281324,3.5287461,-6.175702,-3.3752573,3.3726482,3.7375689,-2.8317575,-2.4231498,0.59190536
sub-639659_fdg_template_reg_mcalt_SyN_v20221013_1007,1.6817046,-3.6034157,-3.6041274,4.612156,-2.56371,4.662421,-3.4736512,-9.080279,3.5901525,-6.7141757,-3.6557376,3.324201,3.655069,-2.49712,-2.0996072,0.6947648
sub-952507_fdg_template_reg_mcalt_SyN_v20221013_1005,2.5704618,-2.5955925,-4.14904,5.013701,-1.8006803,4.7863717,-3.8538826,-8.188742,4.3825088,-5.843151,-3.8039212,3.1168597,4.020813,-3.3541956,-1.6281294,1.0843741
sub-876726_fdg_template_reg_mcalt_SyN_v20221013_1007,2.032493,-3.587574,-4.737599,4.4408026,-2.3370621,4.8583083,-3.3435378,-8.725285,4.012767,-6.4530387,-3.217785,3.1327739,3.888099,-1.9988973,-1.7102584,1.2042183
sub-960941_fdg_template_reg_mcalt_SyN_v20221013_1011,1.7088242,-3.398593,-4.0008597,4.063291,-2.5501866,4.7217627,-3.5447211,-8.540779,3.5083194,-6.649397,-3.5413127,3.1355283,3.9852698,-2.625262,-2.0149167,0.63085234
sub-330190_fdg_template_reg_mcalt_SyN_v20221013_1007,1.4736787,-3.3766406,-4.8713813,4.685034,-2.370609,4.418161,-3.6056118,-9.988525,3.3201346,-5.7350154,-3.5086539,3.3362167,3.3636346,-2.7042327,-2.348802,0.52188957
sub-586541_fdg_template_reg_mcalt_SyN_v20221013_1010,2.0156436,-2.8953338,-3.947312,4.8607826,-2.054535,4.3050075,-4.1752415,-9.228634,3.5249767,-5.708246,-4.265596,3.1414213,3.7970042,-3.3119473,-1.9788815,0.4597021
sub-723202_fdg_template_reg_mcalt_SyN_v20221013_6,1.6039516,-3.361389,-4.219765,4.2364,-2.1159544,4.7467613,-3.5900989,-9.026401,3.3987563,-6.2159634,-3.7118847,3.2386706,3.847943,-3.025351,-2.1726286,0.7527485
sub-333563_fdg_template_reg_mcalt_SyN_v20221013_1008,1.5617726,-3.4269493,-4.3138986,4.8679857,-2.215146,4.4978924,-3.5139604,-9.59636,3.370514,-5.902477,-3.7500963,3.3919573,3.565492,-2.84486,-2.212131,0.47557908
sub-546273_fdg_template_reg_mcalt_SyN_v20221013_1008,1.8921365,-3.535497,-4.7283792,4.5762534,-2.0559254,4.962063,-3.4190567,-9.1092005,3.8770614,-6.3384633,-3.2233167,2.9245021,3.762463,-2.6458855,-2.1609383,1.0517638
sub-987790_fdg_template_reg_mcalt_SyN_v20221013_5,1.379322,-3.70922,-4.2007246,4.5871644,-2.3987737,4.685044,-3.2221491,-9.537816,3.3144917,-6.2439046,-3.6382778,3.410201,3.511338,-2.4361112,-2.0729167,0.7744639
sub-896009_fdg_template_reg_mcalt_SyN_v20221013_1008,1.7675546,-3.5773742,-4.192558,4.4719944,-2.6039946,4.702049,-3.6221805,-8.78804,3.5815582,-6.255303,-3.5531518,3.0904949,3.653275,-2.6918206,-1.982164,0.74432695
sub-5293_fdg_template_reg_mcalt_SyN_v20221013_1008,1.5971208,-3.3807135,-4.4511642,4.369562,-2.2192185,4.6396832,-3.6780243,-8.987801,3.4307475,-6.056558,-3.5128477,3.0748253,3.6363754,-3.0686238,-2.2901785,0.8528414
sub-849583_fdg_template_reg_mcalt_SyN_v20221013_1005,1.6190858,-3.499148,-4.175528,4.284413,-2.5001993,4.6808534,-3.7179916,-8.901445,3.542123,-6.3157215,-3.6817386,3.0128062,3.769509,-2.81102,-2.1855106,0.82099193
sub-253853_fdg_template_reg_mcalt_SyN_v20221013_1009,2.427122,-3.400361,-4.808593,4.434998,-2.455906,4.418084,-3.6246219,-8.519608,3.9157324,-6.1438556,-3.3778574,3.2436972,4.211331,-2.4309509,-2.1533575,0.8593926
sub-679991_fdg_template_reg_mcalt_SyN_v20221013_1006,1.7508893,-3.7166328,-4.2429414,4.717816,-2.0867162,4.9218025,-3.400442,-9.079539,3.5623558,-6.437721,-3.2233162,3.4061341,3.677703,-2.6996913,-2.1662652,0.8831799
sub-320681_fdg_template_reg_mcalt_SyN_v20221013_12,1.7607557,-3.6098945,-4.1449723,4.351989,-2.621022,4.8020053,-3.598615,-8.823292,3.727001,-6.5706406,-3.533322,3.0292885,3.7200923,-2.3758569,-1.8694202,1.0020347
sub-553809_fdg_template_reg_mcalt_SyN_v20221013_1006,1.8942223,-3.5629928,-4.517587,4.621505,-2.2141402,4.7186007,-3.6963837,-9.005524,3.6171174,-6.293606,-3.3319662,3.163053,3.8775926,-2.818085,-2.257121,0.78757024
sub-480455_fdg_template_reg_mcalt_SyN_v20221013_120,1.6977332,-3.8080246,-4.093077,4.787211,-2.4131734,4.692995,-3.137828,-9.382996,3.4637783,-6.4749403,-3.5662127,3.4617615,3.5095363,-2.4066195,-2.2299395,0.70450467
sub-136719_fdg_template_reg_mcalt_SyN_v20221013_1009,1.748889,-3.5729222,-4.8742123,5.4509597,-2.027816,4.663117,-3.277471,-9.879919,3.418308,-5.363314,-3.4611714,3.2606847,3.1567724,-2.8754284,-1.731952,0.73431724
sub-24856_fdg_template_reg_mcalt_SyN_v20221013_123,1.6167634,-3.6939569,-4.2758455,4.4523115,-2.1907203,4.8685136,-3.3052762,-8.98386,3.357838,-6.2656794,-3.5544446,3.3941164,3.793337,-2.7991679,-2.2024255,0.7866171
sub-431961_fdg_template_reg_mcalt_SyN_v20221013_12,1.747526,-3.623581,-4.419449,4.3430386,-2.2501986,4.8074036,-3.6814556,-8.907368,3.7308156,-6.298959,-3.3355875,2.9900863,3.714277,-2.7008314,-2.1248217,0.9932848
sub-415438_fdg_template_reg_mcalt_SyN_v20221013_12,1.7360979,-3.762327,-4.231857,4.4752703,-2.2269483,4.8940973,-3.438859,-9.177992,3.5484161,-6.417424,-3.3554833,3.2596755,3.6691282,-2.622086,-2.1979766,0.86393386
sub-606791_fdg_template_reg_mcalt_SyN_v20221013_12,1.6032829,-3.5720239,-4.160475,4.4751706,-2.065711,4.9749727,-3.6474543,-9.071181,3.6201384,-6.4616838,-3.1537018,3.1231837,3.5358832,-2.8152668,-2.1368563,0.8306929
sub-570764_fdg_template_reg_mcalt_SyN_v20221013_1010,1.6559706,-3.6444197,-4.3277736,4.5988317,-2.4484088,4.6020117,-3.412606,-9.269251,3.3982177,-6.1130967,-3.6496844,3.3499894,3.6436646,-2.635066,-2.217129,0.77529675
sub-13033_fdg_template_reg_mcalt_SyN_v20221013_1005,1.9864627,-3.394316,-4.1730475,4.448128,-2.1809037,4.708275,-3.683186,-8.630682,3.7214355,-6.2290606,-3.379913,3.2733176,3.8438604,-2.9678922,-2.1090786,0.4898939
sub-224558_fdg_template_reg_mcalt_SyN_v20221013_5,1.6147497,-3.9580038,-4.061389,5.218669,-1.9847366,4.769916,-3.2984788,-9.674199,3.2888849,-6.019204,-3.294158,3.5923612,3.5407143,-2.6756656,-2.0242252,0.36840004
sub-902167_fdg_template_reg_mcalt_SyN_v20221013_1008,1.644731,-3.5616956,-4.1993065,4.3150277,-2.452291,4.764049,-3.677777,-9.01565,3.564568,-6.407049,-3.445747,2.9509506,3.7724323,-2.7018368,-2.2956018,0.7263196
sub-746643_fdg_template_reg_mcalt_SyN_v20221013_1005,1.6247262,-3.4995573,-4.0591836,4.3398886,-2.4013748,4.7038016,-3.5490086,-8.652841,3.4599512,-6.3827486,-3.5049691,3.0327508,3.7407656,-2.7809858,-1.9964215,0.7710405
sub-604715_fdg_template_reg_mcalt_SyN_v20221013_1007,1.9893396,-3.5762424,-4.72574,4.555726,-2.2968037,4.749204,-3.532099,-8.971169,3.6397076,-6.108073,-3.0691497,2.9464843,3.6591446,-2.576855,-2.0963464,0.84473574
sub-585753_fdg_template_reg_mcalt_SyN_v20221013_1005,1.6091188,-3.729106,-4.0975766,4.9483933,-2.3343349,4.730252,-3.3690174,-9.382445,3.4544387,-6.3982205,-3.2832067,3.317571,3.46773,-2.7009442,-2.175418,0.6061591
sub-512702_fdg_template_reg_mcalt_SyN_v20221013_1004,1.6685606,-3.4815445,-4.0698195,4.6897035,-2.3432214,4.7081294,-3.4858067,-9.039533,3.4658523,-6.2867684,-3.6208036,3.2421916,3.6807723,-2.7443433,-2.0803475,0.54538083
sub-832564_fdg_template_reg_mcalt_SyN_v20221013_1008,1.8461916,-3.484775,-4.207205,4.43742,-2.2558165,4.5693507,-3.5568638,-9.153046,3.3494406,-6.397272,-3.5063236,3.3989062,3.7705283,-2.8011408,-2.330428,0.5803637
sub-803385_fdg_template_reg_mcalt_SyN_v20221013_1006,1.741762,-3.8763103,-4.120543,4.850808,-2.090341,4.841533,-3.1609175,-9.107766,3.464946,-6.3838477,-3.098488,3.6335967,3.592097,-2.6055868,-2.2040076,0.6814452
sub-137021_fdg_template_reg_mcalt_SyN_v20221013_1006,1.6698837,-3.6526425,-4.110179,4.378163,-2.4631565,4.867923,-3.4169486,-8.935505,3.5773516,-6.5162263,-3.5557015,3.0233014,3.6952567,-2.4554944,-1.9081016,0.80510414
sub-621557_fdg_template_reg_mcalt_SyN_v20221013_5,1.5350623,-3.5197124,-4.03822,4.6463265,-2.2775202,4.8297563,-3.42662,-9.432939,3.5773175,-6.3728347,-3.5827913,3.415633,3.7439365,-2.6082673,-2.1677914,0.6990964
sub-718226_fdg_template_reg_mcalt_SyN_v20221013_5,1.8128953,-3.5723145,-4.2236495,4.469608,-2.3723304,4.4437613,-3.552907,-9.300305,3.358744,-6.1536393,-3.7454262,3.353743,3.601693,-2.7802625,-1.988533,0.5516923
sub-263623_fdg_template_reg_mcalt_SyN_v20221013_1009,1.6659244,-3.7468667,-3.8822517,4.605573,-2.7662137,4.7595897,-3.3255863,-8.8557825,3.5003552,-6.3346567,-3.4466913,3.203211,3.4982162,-2.466829,-2.1499944,0.94735175
sub-438281_fdg_template_reg_mcalt_SyN_v20221013_1005,1.7150649,-3.7470539,-4.260168,4.7907205,-2.124822,4.8384004,-3.303113,-9.220931,3.4099996,-6.245244,-3.268744,3.4735086,3.611584,-2.6843967,-2.0856833,0.6333682
sub-241025_fdg_template_reg_mcalt_SyN_v20221013_5,2.475812,-3.0209634,-4.021794,4.3530526,-2.1568038,4.451082,-4.3040853,-8.016135,3.8461044,-6.2293854,-3.7614784,2.8013494,4.1042504,-3.0444396,-1.797523,0.68385404
sub-474669_fdg_template_reg_mcalt_SyN_v20221013_120,1.6487931,-3.5471914,-4.3093243,4.5550637,-2.3331864,4.713947,-3.5286999,-9.245016,3.5056083,-6.1574187,-3.5674777,3.2299323,3.5683522,-2.729732,-2.0427463,0.8858577
sub-659524_fdg_template_reg_mcalt_SyN_v20221013_12,1.5971129,-3.9534545,-4.3950906,4.7946663,-2.3161275,4.9783363,-3.0587516,-9.594222,3.7220557,-6.5534177,-2.9244547,3.3245118,3.2614708,-2.273341,-2.102366,0.9792153
sub-285090_fdg_template_reg_mcalt_SyN_v20221013_12,1.6375241,-3.748562,-4.2736077,4.3880863,-2.0782177,5.0075884,-3.331514,-8.881076,3.5626636,-6.4967785,-3.2591636,3.1947315,3.6861904,-2.6950326,-2.1556518,0.8242996
sub-900977_fdg_template_reg_mcalt_SyN_v20221013_12,1.679074,-3.8080616,-4.1316876,4.7947397,-2.472617,4.72154,-3.2048829,-9.153051,3.4301515,-6.246417,-3.582611,3.424936,3.4690201,-2.5588808,-1.8750885,0.8502487
sub-851384_fdg_template_reg_mcalt_SyN_v20221013_12,2.2991729,-2.9436677,-3.599077,4.3170323,-2.4927912,4.124527,-4.217811,-8.360183,3.5969825,-6.3493395,-4.4244947,3.307263,4.366974,-2.7359722,-2.189991,0.4855851
sub-698705_fdg_template_reg_mcalt_SyN_v20221013_12,1.7597663,-3.7002509,-4.265558,4.8842697,-2.0575912,4.862578,-3.5173874,-9.060346,3.5969672,-6.175745,-3.3173912,3.206239,3.7602854,-2.6699607,-2.020538,0.6423607
sub-471721_fdg_template_reg_mcalt_SyN_v20221013_5,1.3994336,-3.9788764,-4.3658953,5.371314,-2.1288555,4.880974,-2.9107578,-10.170808,3.363789,-6.0291495,-3.296681,3.7932365,3.095534,-2.3625157,-2.1389804,0.85495484
sub-999002_fdg_template_reg_mcalt_SyN_v20221013_1007,1.7274274,-3.7370293,-4.489157,4.546977,-2.239188,4.817977,-3.4054837,-8.892935,3.4227078,-6.2079005,-3.3251889,3.2987323,3.6789663,-2.4754024,-1.9859827,1.037157
sub-525782_fdg_template_reg_mcalt_SyN_v20221013_1009,1.5595553,-3.7340097,-4.5313945,3.6853077,-2.908788,3.5744715,-4.086809,-9.367309,2.4227798,-5.517265,-4.285542,3.1624088,4.1018295,-3.251281,-3.1206698,-0.5194571
sub-141403_fdg_template_reg_mcalt_SyN_v20221013_6,1.9391631,-3.5718207,-4.3181305,4.7871075,-2.1574857,4.5411177,-3.7904818,-9.0691395,3.4487417,-6.094689,-3.4101756,3.1303105,3.69669,-2.9531024,-2.2356231,0.6811864
sub-450205_fdg_template_reg_mcalt_SyN_v20221013_120,1.5924859,-3.6496165,-4.4440694,4.513978,-2.222293,4.7484827,-3.3736837,-9.169966,3.3058002,-6.1919813,-3.4165616,3.3238072,3.5328526,-3.1299598,-2.555043,0.60429204
sub-324513_fdg_template_reg_mcalt_SyN_v20221013_9,1.8666819,-3.7686555,-3.8445852,4.827232,-2.4156897,4.505518,-3.882347,-8.879041,3.4642224,-6.294712,-3.4831517,2.9292972,3.655585,-2.6300359,-1.9181983,0.41550565
sub-786538_fdg_template_reg_mcalt_SyN_v20221013_1007,1.5472039,-3.7946513,-4.31464,4.6506524,-2.0640695,4.8394403,-3.2632873,-9.479432,3.4313693,-6.3326035,-3.2675898,3.3879485,3.536158,-2.6583817,-2.30156,0.54921454
sub-170942_fdg_template_reg_mcalt_SyN_v20221013_12,1.7981741,-3.8323786,-4.0402207,4.5441747,-2.226678,4.8285184,-3.471283,-8.94474,3.458427,-6.469066,-3.2916515,3.337027,3.745223,-2.6848323,-2.2646842,0.63440275
sub-414439_fdg_template_reg_mcalt_SyN_v20221013_1010,1.524945,-3.7443867,-4.2473936,4.345855,-2.4731798,4.702575,-3.390333,-8.943119,3.384483,-6.3543053,-3.5201554,3.1419725,3.700295,-2.7461543,-2.2364826,0.5906993
sub-708784_fdg_template_reg_mcalt_SyN_v20221013_1006,1.724113,-3.5891423,-3.9003286,4.72434,-2.2709322,4.6659966,-3.454095,-9.111676,3.2707064,-6.4126725,-3.5405374,3.4680371,3.5938592,-3.04187,-2.3217847,0.29224476
sub-555948_fdg_template_reg_mcalt_SyN_v20221013_12,1.4421345,-3.699929,-3.9729273,4.288974,-2.4302242,4.8301888,-3.3875527,-9.110891,3.4178522,-6.6160808,-3.5421333,3.2197394,3.6395104,-2.5807936,-2.258955,0.82749057
sub-407993_fdg_template_reg_mcalt_SyN_v20221013_1008,1.5478721,-3.6272562,-4.325715,4.535848,-2.266815,4.807203,-3.242176,-9.315749,3.4484966,-6.430736,-3.6496236,3.2999403,3.7211607,-2.674429,-2.3389602,0.8464563
sub-232542_fdg_template_reg_mcalt_SyN_v20221013_12,1.4988892,-3.5523307,-4.547889,4.698808,-2.2167728,4.729925,-3.4560368,-9.391082,3.6578987,-6.1622796,-3.300392,3.127159,3.5378635,-2.605481,-2.146996,1.0871692
sub-150569_fdg_template_reg_mcalt_SyN_v20221013_5,1.5528492,-3.5946472,-4.916098,4.630609,-2.3280008,4.478771,-3.3352845,-9.935634,3.4253016,-5.869929,-3.6710815,3.3110166,3.6173675,-2.4075835,-2.2136953,0.63215005
sub-768835_fdg_template_reg_mcalt_SyN_v20221013_1011,1.7038844,-3.761999,-4.078169,4.51696,-2.3606746,4.7010355,-3.4574628,-8.93012,3.3588076,-6.4271283,-3.3587167,3.224446,3.7003686,-2.6108665,-2.047116,0.64837664
sub-415819_fdg_template_reg_mcalt_SyN_v20221013_1008,1.7951058,-3.581669,-4.0980463,4.735762,-1.8054656,4.875932,-3.5766482,-9.143377,3.4295986,-6.3715215,-3.2263644,3.3453357,3.7621813,-2.939008,-2.0248222,0.52746844
sub-552399_fdg_template_reg_mcalt_SyN_v20221013_1006,1.8612874,-3.877275,-4.541241,4.7052116,-2.3696277,4.690634,-3.2145145,-9.302241,3.321824,-6.067093,-3.4449718,3.4577796,3.609563,-2.5464747,-2.0608315,0.7893449
sub-608354_fdg_template_reg_mcalt_SyN_v20221013_120,1.8119571,-3.3070612,-4.168899,4.45352,-2.271307,4.4475784,-3.8067012,-9.010491,3.364191,-6.067079,-3.6949134,3.1664746,3.7210598,-2.8639228,-2.072921,0.572958
sub-298154_fdg_template_reg_mcalt_SyN_v20221013_12,1.6397662,-3.6974838,-4.6725116,4.3615603,-2.1201541,4.8845935,-3.4558399,-9.12623,3.640874,-6.242169,-3.3740008,3.0811768,3.571811,-2.6384165,-2.1855798,1.0167129
sub-721490_fdg_template_reg_mcalt_SyN_v20221013_1005,1.6997436,-3.6348994,-4.2713056,4.707473,-2.468901,4.636564,-3.3957827,-9.051639,3.5971718,-6.199952,-3.394176,3.2597446,3.5363204,-2.2821634,-1.7494808,0.82536274
sub-452143_fdg_template_reg_mcalt_SyN_v20221013_1004,1.8398869,-3.718812,-4.264021,4.4218626,-2.344553,4.705784,-3.337849,-8.9122505,3.3913517,-6.2767224,-3.5515587,3.290479,3.717553,-2.5184205,-2.034074,0.869858
sub-567640_fdg_template_reg_mcalt_SyN_v20221013_1006,1.6062834,-3.7058258,-4.038029,4.4533663,-2.3244498,4.715403,-3.4201882,-9.104798,3.2333174,-6.2715297,-3.587889,3.3766167,3.6902053,-2.8286574,-2.3103719,0.5940531
sub-532943_fdg_template_reg_mcalt_SyN_v20221013_1007,1.7524241,-3.635638,-4.012045,4.6691318,-2.1461418,4.9274015,-3.3097665,-8.919338,3.4740705,-6.4993954,-3.346785,3.4118938,3.688431,-2.8261492,-2.1387513,0.7689731
sub-564644_fdg_template_reg_mcalt_SyN_v20221013_1005,1.5109495,-3.7155669,-4.057948,4.7302604,-2.1730723,4.7897534,-3.3101811,-9.097885,3.2518737,-6.1866364,-3.436083,3.332194,3.6150308,-2.8737018,-2.1302624,0.53548604
sub-527314_fdg_template_reg_mcalt_SyN_v20221013_1008,1.5673215,-3.7152882,-4.111941,4.62151,-2.2591693,4.882289,-3.1736944,-9.039934,3.5647702,-6.484089,-3.2722373,3.3322215,3.5830262,-2.6325278,-2.0706387,0.6895815
sub-275458_fdg_template_reg_mcalt_SyN_v20221013_120,1.8403592,-3.4340162,-4.3848433,4.4726214,-2.2029588,4.7173676,-3.7343152,-8.905713,3.6186173,-6.126704,-3.462047,3.117,3.8659902,-2.787127,-2.1920173,0.8741581
sub-391633_fdg_template_reg_mcalt_SyN_v20221013_4,1.8856694,-3.5385015,-4.012612,4.0725346,-2.4357114,4.6206717,-3.7519155,-8.592204,3.5049186,-6.4612303,-3.725932,3.142988,3.9692307,-2.8190026,-2.1174226,0.69611806
sub-173632_fdg_template_reg_mcalt_SyN_v20221013_6,1.797951,-3.6954815,-4.3669267,4.270444,-2.291456,4.8148365,-3.4918048,-8.832492,3.7494464,-6.509435,-3.233119,3.0473573,3.7361994,-2.601204,-2.1095917,0.76371753
sub-338627_fdg_template_reg_mcalt_SyN_v20221013_6,1.6562287,-3.3939114,-4.2641892,4.2379303,-2.4116848,4.5346594,-3.6742735,-9.274907,3.439716,-6.264256,-3.7612112,3.275672,3.7505097,-2.5861137,-1.9947907,0.66837084
sub-345501_fdg_template_reg_mcalt_SyN_v20221013_12,1.6233362,-3.8730748,-4.1061554,4.930899,-2.2438009,4.7544336,-3.3146806,-9.521064,3.336858,-6.2673326,-3.3037453,3.5991871,3.5271907,-2.5841722,-1.9959975,0.5628326
sub-808207_fdg_template_reg_mcalt_SyN_v20221013_1007,1.5649564,-3.9314437,-4.129247,4.7187996,-2.4432411,4.837206,-3.1006165,-9.295001,3.38173,-6.4770484,-3.4064746,3.4236844,3.4393456,-2.4432576,-2.1352234,0.7703053
sub-335452_fdg_template_reg_mcalt_SyN_v20221013_1009,1.6030438,-3.66608,-4.2835555,4.5982885,-2.522739,4.720454,-3.2804875,-9.231553,3.4182303,-6.368124,-3.403803,3.3385155,3.585498,-2.40669,-2.2535288,0.88355833
sub-515974_fdg_template_reg_mcalt_SyN_v20221013_6,2.0189347,-3.439035,-4.212708,3.958212,-2.8286977,4.3387194,-3.7833729,-8.230683,3.6585083,-6.563149,-3.7048292,2.996435,4.134819,-2.7043319,-2.254667,0.88521713
sub-538619_fdg_template_reg_mcalt_SyN_v20221013_120,2.3824244,-3.1362336,-3.9969587,4.3225183,-2.3180697,4.6085763,-4.050033,-7.8427267,3.9130924,-6.517439,-3.5390015,2.915873,4.331677,-2.9167979,-1.8880578,0.97748727
sub-686965_fdg_template_reg_mcalt_SyN_v20221013_120,1.7820568,-3.849592,-4.3365617,4.8912854,-2.1732764,4.767504,-3.4504778,-9.473598,3.5475314,-6.292015,-3.0801227,3.3232954,3.501855,-2.517451,-2.0858793,0.682284
sub-767649_fdg_template_reg_mcalt_SyN_v20221013_12,1.6245936,-3.4958398,-4.114934,4.0648584,-2.4534385,4.7115803,-3.7064126,-8.629162,3.477389,-6.3649864,-3.6749384,2.8787763,3.9556375,-2.7250419,-1.9209948,0.92563176
sub-806605_fdg_template_reg_mcalt_SyN_v20221013_1009,1.8470377,-3.7186418,-4.2184696,4.5901814,-2.3826308,4.7125587,-3.4942706,-8.963562,3.352505,-6.3423667,-3.4877949,3.2024677,3.6204321,-2.8172243,-2.1576266,0.65722907
sub-61050_fdg_template_reg_mcalt_SyN_v20221013_1005,1.6957961,-3.5618834,-4.2004466,4.419259,-2.4394553,4.6982017,-3.367545,-9.159689,3.4090626,-6.431188,-3.5559177,3.2198517,3.6095495,-2.6857715,-2.27156,0.7798551
sub-409853_fdg_template_reg_mcalt_SyN_v20221013_1008,1.3259848,-3.3691099,-4.293032,4.2621098,-2.2398992,4.4763455,-3.478299,-9.462798,3.0014029,-5.93501,-3.994863,3.3965373,3.7858255,-3.0633342,-2.4030519,0.39760104
sub-846782_fdg_template_reg_mcalt_SyN_v20221013_1005,1.5115403,-3.902606,-4.009788,4.6690607,-2.2150338,4.926582,-3.2410495,-9.029382,3.487017,-6.465026,-3.1763613,3.3463707,3.5849833,-2.6812994,-2.1005766,0.68978107
sub-987080_fdg_template_reg_mcalt_SyN_v20221013_8,1.8982022,-3.5300791,-4.335344,4.6445103,-2.5805068,4.5532565,-3.5195606,-9.040454,3.661893,-6.199777,-3.4324925,3.2881577,3.6715176,-2.335091,-1.9310411,0.94636756
sub-72650_fdg_template_reg_mcalt_SyN_v20221013_5,1.5736498,-3.6920784,-3.9354107,4.72117,-2.1862192,4.9259157,-3.1543133,-9.3433075,3.7098863,-6.6768465,-3.2498655,3.36328,3.7026813,-2.4302206,-2.0857704,0.8074508
sub-452578_fdg_template_reg_mcalt_SyN_v20221013_1005,1.8767304,-3.3425152,-4.2617583,4.043252,-2.5235715,4.473165,-3.9567418,-8.623418,3.5212932,-6.2509174,-3.968691,2.8919013,4.112696,-2.6312103,-2.0335574,0.65558076
sub-845840_fdg_template_reg_mcalt_SyN_v20221013_1006,1.9015427,-3.4175243,-4.3138537,3.751354,-2.732933,4.725715,-3.9510837,-8.187634,3.724891,-6.4968414,-3.6956723,2.7257495,4.130715,-2.6432083,-1.9931703,0.94518566
sub-550154_fdg_template_reg_mcalt_SyN_v20221013_12,1.4703265,-3.9403667,-4.126827,4.711376,-2.2481697,4.687519,-3.3755882,-9.73201,3.3376544,-6.2538157,-3.2372484,3.4532297,3.3351922,-2.6824071,-2.1598496,0.41431242
sub-575971_fdg_template_reg_mcalt_SyN_v20221013_1006,1.5620204,-3.8241947,-4.162022,5.0642447,-2.3467689,4.6615386,-3.1961021,-9.5653715,3.356808,-6.1772575,-3.4631245,3.6537888,3.3035002,-2.5530944,-2.1505644,0.54146165
sub-720836_fdg_template_reg_mcalt_SyN_v20221013_1004,1.851633,-3.7576044,-4.492715,4.6017766,-2.3748453,4.7198453,-3.2255301,-9.183247,3.3986194,-6.3508368,-3.3619552,3.4201672,3.5885496,-2.4658625,-1.9874862,0.93653905
sub-327511_fdg_template_reg_mcalt_SyN_v20221013_5,1.7029134,-3.6419828,-4.5097494,4.8967695,-2.2569451,4.700351,-3.3731472,-9.282177,3.5496848,-6.101129,-3.3957345,3.3456264,3.6690013,-2.3914657,-2.1074216,0.82358354
sub-595163_fdg_template_reg_mcalt_SyN_v20221013_5,1.6371782,-3.7811346,-4.41081,4.9397287,-2.4581432,4.6664824,-3.1819568,-9.501833,3.3852026,-6.032832,-3.4768834,3.4414885,3.5128098,-2.2531533,-2.14568,0.8349638
sub-239781_fdg_template_reg_mcalt_SyN_v20221013_4,1.7230895,-3.68419,-4.334262,4.740989,-2.2924874,4.6794024,-3.5963955,-9.300209,3.5949636,-6.2844577,-3.3078732,3.2090294,3.6224618,-2.5785625,-2.202856,0.76953346
sub-963007_fdg_template_reg_mcalt_SyN_v20221013_1009,1.5667729,-3.517688,-4.0941586,4.7315865,-2.0447512,4.821319,-3.525512,-9.099516,3.360956,-6.226996,-3.4405334,3.29488,3.7359507,-3.1146338,-2.3536155,0.48383456
sub-886496_fdg_template_reg_mcalt_SyN_v20221013_1006,1.9653884,-3.4274185,-4.5209284,4.612938,-2.6314414,4.160879,-3.7636824,-9.104492,3.5232167,-5.8552175,-3.8420892,3.0905826,3.7230651,-2.2894835,-2.0561283,0.48435444
sub-22087_fdg_template_reg_mcalt_SyN_v20221013_12,1.4118187,-3.973922,-4.5665374,4.817843,-2.6033418,4.7410607,-2.9092097,-9.80317,3.721654,-6.1864543,-3.135108,3.2798452,3.329184,-1.7715926,-1.9637626,1.1865854
sub-681690_fdg_template_reg_mcalt_SyN_v20221013_1008,1.7531976,-3.5728097,-4.3304405,4.6162515,-2.450426,4.6090937,-3.4228952,-9.223984,3.371855,-6.19223,-3.5128942,3.2813473,3.517718,-2.8256977,-2.2292018,0.7129245
sub-626629_fdg_template_reg_mcalt_SyN_v20221013_1010,1.6329049,-3.608201,-4.192008,4.524643,-2.3033128,4.7082357,-3.5833368,-9.23282,3.3650432,-6.2649584,-3.3910813,3.2280047,3.646978,-2.8137715,-2.1728435,0.5239706
sub-513210_fdg_template_reg_mcalt_SyN_v20221013_1007,1.6723915,-3.655409,-4.4478545,4.560972,-2.461591,4.789155,-3.2477326,-9.150134,3.7020807,-6.414304,-3.4656549,3.242239,3.575559,-2.3584015,-2.0821562,1.1616385
sub-512097_fdg_template_reg_mcalt_SyN_v20221013_1009,1.620355,-3.7634695,-4.321367,4.80384,-2.2457805,4.7114916,-3.2669666,-9.405214,3.390319,-6.283323,-3.5044546,3.4553149,3.5617237,-2.5774286,-2.3124404,0.7356364
sub-20719_fdg_template_reg_mcalt_SyN_v20221013_1008,1.5237486,-3.9600217,-3.9007795,4.8387747,-2.1428034,5.013221,-3.1973896,-9.367409,3.4095047,-6.6244836,-3.2473521,3.4925406,3.5737314,-2.6250107,-2.173591,0.548414
sub-791081_fdg_template_reg_mcalt_SyN_v20221013_1008,1.7520454,-3.74235,-4.393165,4.560515,-2.1880229,4.7466416,-3.4184365,-9.052362,3.4345858,-6.088831,-3.3242993,3.3228922,3.6002448,-2.7609138,-2.1662004,0.5005153
sub-787073_fdg_template_reg_mcalt_SyN_v20221013_1009,1.7088202,-3.5262935,-4.1422153,4.3716736,-2.3406348,4.567678,-3.9169607,-8.949254,3.416692,-6.1548305,-3.451468,3.056524,3.7462146,-2.9841075,-2.0615532,0.5125126
sub-135030_fdg_template_reg_mcalt_SyN_v20221013_12,1.5584105,-3.794773,-4.2502427,4.9349174,-1.8050382,4.9217944,-3.2787504,-9.477348,3.2854452,-6.132401,-3.1903286,3.6623552,3.4671087,-3.0602794,-2.3179388,0.50867647
sub-162451_fdg_template_reg_mcalt_SyN_v20221013_1008,1.6547179,-3.7305176,-3.9869375,5.085837,-2.2858567,4.61133,-3.3685188,-9.484579,3.4044452,-6.223704,-3.3798869,3.3140955,3.509865,-2.6970596,-2.155427,0.3970761
sub-185556_fdg_template_reg_mcalt_SyN_v20221013_1009,1.6895963,-3.6172984,-4.483292,4.7134013,-2.199951,4.652656,-3.4518259,-9.318885,3.611836,-6.202596,-3.2414157,3.3631306,3.6703665,-2.6604307,-2.1632524,0.6678052
sub-203671_fdg_template_reg_mcalt_SyN_v20221013_1008,1.8258302,-3.4083278,-4.1655273,4.481783,-2.349461,4.684367,-3.617184,-8.930531,3.587799,-6.304271,-3.5105348,3.1414058,3.7997954,-2.7643888,-2.2365975,0.60577375
sub-437660_fdg_template_reg_mcalt_SyN_v20221013_120,1.8165987,-3.5139766,-4.810142,4.2438364,-2.1385863,4.541574,-3.6632483,-9.172896,3.3486605,-6.006159,-3.3897495,3.214221,3.635107,-2.9384696,-2.3336263,0.7690905
sub-867697_fdg_template_reg_mcalt_SyN_v20221013_1005,1.4155283,-3.633398,-4.17643,4.5540833,-2.3190844,4.6846294,-3.476391,-9.348858,3.4177096,-6.0836463,-3.4017897,3.1932936,3.5193331,-2.7975779,-2.2425694,0.62120044
sub-627442_fdg_template_reg_mcalt_SyN_v20221013_13,1.7650717,-3.6127603,-4.044603,4.7441015,-2.3023953,4.646771,-3.6542442,-9.203009,3.6432629,-6.3679476,-3.4068272,3.1826525,3.605318,-2.3786936,-2.0857227,0.70744467
sub-881955_fdg_template_reg_mcalt_SyN_v20221013_120,2.6292481,-2.8315554,-4.3051925,4.7068944,-2.4652784,4.3421817,-4.0904636,-8.326743,4.2771645,-5.99633,-3.9854717,3.218724,4.218221,-2.580479,-1.5715008,1.1130766
sub-36577_fdg_template_reg_mcalt_SyN_v20221013_1011,1.6635764,-3.6809783,-4.2771564,4.6674113,-2.3831527,4.7270846,-3.3298907,-9.10992,3.3813024,-6.1467905,-3.5391095,3.3155372,3.640402,-2.7135794,-2.0395937,1.0138143
sub-256653_fdg_template_reg_mcalt_SyN_v20221013_1007,1.6606137,-3.7829318,-4.1983757,4.6316333,-2.257947,4.755359,-3.3565445,-9.182436,3.40892,-6.273842,-3.4362204,3.4329479,3.4965675,-2.800718,-2.1373143,0.9043108
sub-448519_fdg_template_reg_mcalt_SyN_v20221013_5,1.6902649,-3.516991,-4.0473065,4.4694333,-2.3518333,4.6947,-3.661957,-8.91284,3.459087,-6.35849,-3.499139,3.127566,3.6533701,-2.7009501,-2.1537368,0.72993714
sub-491592_fdg_template_reg_mcalt_SyN_v20221013_1006,1.4254428,-4.0765247,-4.1740346,5.4685745,-2.1848493,4.786293,-2.9040647,-10.250825,3.2415977,-6.1038055,-2.96469,3.810574,3.0682101,-2.3849726,-2.2280166,0.339506
sub-10806_fdg_template_reg_mcalt_SyN_v20221013_12,1.7099282,-3.7139523,-3.9478555,4.4898376,-2.275374,4.767427,-3.6835501,-9.039766,3.4723413,-6.442712,-3.4656863,3.2717035,3.6651716,-2.7100792,-2.0405755,0.59177256
sub-340150_fdg_template_reg_mcalt_SyN_v20221013_1004,1.6918132,-3.6038733,-4.107531,4.5911927,-2.145628,4.9620934,-3.6215456,-8.782876,3.639639,-6.3993506,-3.1285183,2.9619617,3.761988,-2.7883735,-2.0784976,0.78196466
sub-773431_fdg_template_reg_mcalt_SyN_v20221013_7,1.8263751,-3.533412,-4.489292,4.1122293,-2.895095,4.4866195,-3.6662948,-8.895896,3.6961892,-6.433573,-3.766794,2.8377998,3.8618014,-2.1459918,-1.9643859,0.8703829
sub-602532_fdg_template_reg_mcalt_SyN_v20221013_1008,2.3414192,-2.751047,-3.5850472,4.6990614,-2.28204,4.3393617,-4.375724,-8.158473,4.159043,-6.2486844,-4.2489996,2.9895782,4.166027,-3.1719441,-1.6252865,0.74576116
sub-649122_fdg_template_reg_mcalt_SyN_v20221013_120,1.7421367,-3.3302057,-4.4232764,4.3551297,-2.086306,4.7800617,-3.5610332,-8.874209,3.6114976,-6.3038387,-3.2632349,3.0202816,3.7712195,-2.8436778,-2.1025927,0.8086214
sub-125728_fdg_template_reg_mcalt_SyN_v20221013_12,1.7370396,-3.4537299,-4.1907706,4.220741,-2.3727224,4.709105,-3.7012875,-8.713336,3.5825574,-6.4228377,-3.5399837,3.1397617,3.865165,-2.785803,-2.0953112,0.7802032
sub-625736_fdg_template_reg_mcalt_SyN_v20221013_12,1.8690871,-3.4413004,-4.186765,4.137621,-2.4984403,4.6270742,-3.597158,-8.6523,3.5284464,-6.3936443,-3.8112888,3.0858343,3.8999734,-2.75721,-2.1584675,0.80923384
sub-821505_fdg_template_reg_mcalt_SyN_v20221013_6,1.6212245,-3.450522,-4.132465,4.5240083,-2.4132736,4.6719055,-3.610568,-8.951771,3.4932761,-6.3519125,-3.7715871,3.111902,3.8397164,-2.733541,-2.07625,0.80636984
sub-930590_fdg_template_reg_mcalt_SyN_v20221013_1007,1.8087308,-3.548809,-4.460754,4.4099216,-2.2736483,4.780603,-3.57476,-8.884573,3.5308177,-6.199253,-3.2988904,3.2983065,3.708007,-2.8277373,-2.044486,0.6525551
sub-905620_fdg_template_reg_mcalt_SyN_v20221013_1008,1.7690583,-3.651838,-4.7665305,4.644706,-2.3227918,4.754668,-3.1850784,-9.431772,3.725055,-6.1371746,-3.0569825,3.2661376,3.459375,-2.3380764,-2.0546532,1.0610906
sub-209088_fdg_template_reg_mcalt_SyN_v20221013_4,1.650083,-3.6083024,-4.1875844,4.6539154,-2.0731075,4.714718,-3.7021558,-9.129613,3.3869355,-6.1682434,-3.336014,3.1947773,3.6277251,-3.2146964,-2.1683872,0.48609602
sub-57759_fdg_template_reg_mcalt_SyN_v20221013_12,1.6799141,-3.7846,-4.136518,4.4768353,-2.5666742,4.734327,-3.4096496,-9.141274,3.4916015,-6.4736967,-3.405489,3.1729815,3.6183476,-2.4553528,-2.1338346,0.85564345
sub-888478_fdg_template_reg_mcalt_SyN_v20221013_1008,1.6152805,-3.5435166,-4.31446,4.496662,-2.437957,4.665738,-3.403487,-9.146364,3.5479684,-6.3162575,-3.558436,3.3227181,3.6916337,-2.449742,-2.0328958,0.85846853
sub-486772_fdg_template_reg_mcalt_SyN_v20221013_120,1.5047191,-3.9144876,-3.9209723,5.124166,-2.415271,4.6504884,-3.2271056,-9.60463,3.2915213,-6.0621314,-3.524943,3.6639743,3.3774977,-2.5070708,-2.0030215,0.49827015
sub-497393_fdg_template_reg_mcalt_SyN_v20221013_8,1.501013,-3.7520926,-3.8551664,4.6895103,-2.4705434,4.7532825,-3.2707741,-9.199023,3.3925302,-6.458084,-3.4958935,3.4698904,3.5273821,-2.6676319,-2.005958,0.67687833
sub-766875_fdg_template_reg_mcalt_SyN_v20221013_1005,1.825349,-3.7721841,-4.2929697,4.8940616,-2.1976564,4.7317877,-3.2643585,-9.165063,3.2643402,-6.167324,-3.3400857,3.5928423,3.5922287,-2.7676852,-2.1101322,0.37316743
sub-491239_fdg_template_reg_mcalt_SyN_v20221013_5,1.5483493,-3.8623066,-4.4564376,5.220833,-2.0547478,4.9093666,-2.769038,-10.2131195,3.6327353,-6.305578,-3.054036,3.7056494,3.1943395,-2.17265,-1.9865985,0.93995154
sub-643675_fdg_template_reg_mcalt_SyN_v20221013_12,1.866079,-3.592085,-4.4192357,4.5095963,-1.9981216,4.959291,-3.4769583,-8.863596,3.364168,-6.2564697,-3.1791883,3.1746469,3.5367181,-2.980006,-2.193403,0.9239361
sub-301507_fdg_template_reg_mcalt_SyN_v20221013_1006,1.7798231,-3.5403705,-4.194833,4.811146,-2.3062184,4.72594,-3.5565646,-8.980003,3.6417692,-6.2823777,-3.5250566,3.2387033,3.6682348,-2.8346674,-2.0713632,0.5695787
sub-170242_fdg_template_reg_mcalt_SyN_v20221013_1008,1.8243674,-3.4601111,-4.1385026,4.626426,-2.3543463,4.6661906,-3.520503,-9.064151,3.5809374,-6.3768053,-3.5124748,3.2780986,3.7264752,-2.640571,-2.0680559,0.68049705
sub-710240_fdg_template_reg_mcalt_SyN_v20221013_1010,1.7349164,-3.408768,-4.04994,4.573573,-2.2668717,4.8060055,-3.6027317,-8.780933,3.608052,-6.3833694,-3.4659154,3.1731474,3.723036,-2.9638023,-2.0999572,0.5861902
sub-384635_fdg_template_reg_mcalt_SyN_v20221013_1006,1.6591663,-3.5411901,-3.972604,4.622925,-2.3635921,4.737554,-3.5536447,-8.680882,3.6307218,-6.474818,-3.5144765,3.1315966,3.6885753,-2.8898802,-2.0106966,0.6689739
sub-839818_fdg_template_reg_mcalt_SyN_v20221013_1007,1.6532748,-3.732348,-4.262232,4.830951,-2.4400504,4.496638,-3.2751002,-9.462048,3.3762405,-6.182908,-3.505922,3.4668307,3.4406414,-2.4937103,-1.9220674,0.63612175
sub-905402_fdg_template_reg_mcalt_SyN_v20221013_1005,1.7255626,-3.504419,-4.1399493,4.3239965,-2.3497546,4.756184,-3.634494,-8.811475,3.4317577,-6.390104,-3.5864975,3.113484,3.851481,-3.008857,-2.3135967,0.7862366
sub-228815_fdg_template_reg_mcalt_SyN_v20221013_5,1.8377709,-3.257332,-3.954547,4.4531355,-2.355316,4.497911,-3.86564,-8.905957,3.686066,-6.346401,-3.7116659,3.0618832,3.9278247,-2.761282,-2.113262,0.6104855
sub-140207_fdg_template_reg_mcalt_SyN_v20221013_1007,1.7647076,-3.63733,-4.2591467,4.783963,-2.4711945,4.646256,-3.4893079,-9.138184,3.5414417,-6.430399,-3.4897237,3.0092397,3.5886219,-2.606724,-2.1230736,0.6534564
sub-145181_fdg_template_reg_mcalt_SyN_v20221013_1007,1.5879241,-3.6141937,-4.1472335,4.3282275,-2.4187467,4.915226,-3.454647,-8.80251,3.475353,-6.4399033,-3.572541,3.0971892,3.735306,-2.8038776,-2.2060845,0.97201955
sub-305071_fdg_template_reg_mcalt_SyN_v20221013_5,1.5815868,-3.542472,-4.060202,4.5208855,-2.3419602,4.950756,-3.4819431,-8.896,3.6034396,-6.5438395,-3.4079971,3.1509688,3.6723027,-2.6674857,-2.0151112,0.9643188
sub-997985_fdg_template_reg_mcalt_SyN_v20221013_1010,1.197813,-3.5594265,-4.374812,4.1127462,-2.487238,4.40615,-3.913196,-9.447526,2.898343,-5.751377,-3.8054883,3.0914843,3.767898,-3.0588353,-2.3858542,0.18824372
sub-468358_fdg_template_reg_mcalt_SyN_v20221013_120,2.5087738,-3.1321504,-3.7529938,5.2192264,-2.2900736,4.473494,-4.2334175,-7.915755,4.1994076,-6.281936,-3.3920941,2.8803499,4.0068192,-2.7891521,-1.5960394,0.6356718
sub-460019_fdg_template_reg_mcalt_SyN_v20221013_120,1.6500828,-3.8010366,-4.5925226,4.8275995,-2.14816,4.8580565,-3.1211486,-9.4971075,3.6447778,-6.2738447,-3.1683393,3.441853,3.581139,-2.3992252,-2.1507475,0.9281773
sub-513533_fdg_template_reg_mcalt_SyN_v20221013_7,1.9862504,-3.3664412,-4.140221,4.347959,-2.415278,4.67291,-3.7870798,-8.474462,3.792367,-6.4428177,-3.7998598,2.924667,4.0159616,-2.6540875,-1.7810496,1.0490834
sub-926769_fdg_template_reg_mcalt_SyN_v20221013_120,1.6437769,-3.4415545,-4.316802,4.407014,-2.0158443,4.605247,-3.6594183,-9.416644,3.2401922,-6.0832515,-3.8097665,3.1649096,3.6167316,-3.11819,-2.0672278,0.66344845
sub-885633_fdg_template_reg_mcalt_SyN_v20221013_5,1.6272365,-3.7808354,-4.211954,4.838515,-2.3302565,4.9259195,-3.2069492,-9.098738,3.500707,-6.2879868,-3.4914982,3.2496266,3.4781592,-2.5334215,-2.002576,0.9493688
sub-322075_fdg_template_reg_mcalt_SyN_v20221013_1005,1.8613173,-3.7015975,-4.0757833,4.4939322,-2.321471,4.7954245,-3.603617,-8.699391,3.6742563,-6.501137,-3.4189682,3.1089847,3.8247473,-2.614316,-1.8200245,0.87244314
sub-991280_fdg_template_reg_mcalt_SyN_v20221013_12,1.7607968,-3.730877,-4.1199207,5.0424943,-2.307113,4.6759872,-3.291968,-9.193589,3.343,-6.1630354,-3.5126333,3.4741597,3.5188787,-2.7596364,-2.0272534,0.5559466
sub-193133_fdg_template_reg_mcalt_SyN_v20221013_7,1.9102596,-3.2097614,-4.3225856,4.067192,-2.46115,4.5642147,-3.9680262,-8.15292,3.9550042,-6.258328,-3.7522724,2.8075771,4.121093,-2.6778545,-1.8646084,0.87052137
sub-913595_fdg_template_reg_mcalt_SyN_v20221013_120,1.8355342,-3.2174325,-4.2367373,4.1641483,-2.37601,4.3392277,-4.0094376,-8.533765,3.5823963,-6.172147,-4.024734,2.9197772,3.980958,-2.8506,-2.1066766,0.77688205
sub-814059_fdg_template_reg_mcalt_SyN_v20221013_1005,1.6282126,-3.8525915,-4.122124,4.8540463,-2.365062,4.8402185,-3.0891206,-9.345221,3.5065951,-6.450616,-3.2577922,3.506171,3.5078354,-2.2580884,-2.10584,0.7621847
sub-55886_fdg_template_reg_mcalt_SyN_v20221013_1008,1.7846878,-3.3880286,-4.274913,4.3597054,-2.095969,4.7812243,-3.589331,-8.678533,3.706714,-6.3629336,-3.2139049,2.9885218,3.8829951,-2.9239573,-2.1663532,0.7930247
sub-830338_fdg_template_reg_mcalt_SyN_v20221013_4,1.8161424,-3.5767677,-4.2240973,4.3167,-2.5964706,4.472368,-3.356551,-9.297378,3.432517,-6.320245,-3.7707114,3.4335887,3.711286,-2.4255111,-2.1336932,0.7750116
sub-778870_fdg_template_reg_mcalt_SyN_v20221013_1009,1.4186251,-3.8164365,-4.4439135,4.767474,-2.3542895,4.707261,-3.0253184,-9.663949,3.273221,-6.1899834,-3.3801,3.4640996,3.415135,-2.5055013,-2.2405937,0.5812082
sub-805803_fdg_template_reg_mcalt_SyN_v20221013_1007,1.6264616,-3.5944147,-4.5516725,4.403619,-2.3644652,4.7826242,-3.5669804,-9.034081,3.4907866,-6.159015,-3.3900778,2.9406157,3.6970959,-2.7516792,-2.157915,0.8829813
sub-826056_fdg_template_reg_mcalt_SyN_v20221013_1007,1.7357514,-3.63986,-4.807317,4.662452,-1.9070072,4.8346095,-3.5568979,-9.251369,3.4324253,-5.9642334,-3.0177007,3.1793623,3.4919078,-3.00698,-2.3956409,0.6887648
sub-6547_fdg_template_reg_mcalt_SyN_v20221013_1006,1.7202408,-3.553097,-4.225373,4.0575595,-2.3993359,4.7226205,-3.6803818,-8.66779,3.5614073,-6.3836374,-3.5824857,2.912813,3.963117,-2.8662424,-2.1718664,0.8465905
sub-202993_fdg_template_reg_mcalt_SyN_v20221013_1007,1.7014444,-3.6597645,-4.092034,4.447043,-2.1719325,4.9308634,-3.626735,-8.8018875,3.594057,-6.65376,-3.229658,3.1549456,3.7487726,-2.8979523,-2.1901312,0.81835693
sub-236351_fdg_template_reg_mcalt_SyN_v20221013_1005,1.5894313,-3.2331526,-4.831386,4.2682757,-2.4572737,4.214728,-3.7724617,-9.8836355,3.474288,-5.7212634,-3.6474354,3.1768496,3.4690127,-2.369478,-2.2173421,0.9643474
sub-190666_fdg_template_reg_mcalt_SyN_v20221013_1009,1.6992979,-3.5142384,-4.2172174,4.342214,-2.2976947,4.69107,-3.6302361,-8.852883,3.4872792,-6.3292966,-3.566828,3.1572201,3.7683043,-2.802233,-2.28903,0.75627124
sub-502714_fdg_template_reg_mcalt_SyN_v20221013_1010,1.9031372,-3.5465665,-4.1233673,4.5886354,-2.4786463,4.6429305,-3.6957948,-8.782515,3.7398212,-6.3878903,-3.5401907,3.0077782,3.8603795,-2.4012625,-1.7924751,0.81305254
sub-425067_fdg_template_reg_mcalt_SyN_v20221013_1004,2.2182457,-3.4815907,-4.177664,4.7305503,-2.1546507,4.612382,-3.7835183,-8.752913,3.8194962,-6.4452186,-3.1578593,2.9487772,3.7991323,-2.745233,-2.0188048,0.57212245
sub-849731_fdg_template_reg_mcalt_SyN_v20221013_120,1.734172,-3.7457387,-4.151454,4.7127767,-2.262088,4.958359,-3.4001832,-9.007772,3.735079,-6.5144205,-3.0920784,3.1765435,3.4933913,-2.6575408,-2.147935,0.80474883
sub-210386_fdg_template_reg_mcalt_SyN_v20221013_12,1.7135165,-3.7144024,-4.4121537,4.823315,-2.202549,4.785155,-3.2605383,-9.426424,3.6818252,-6.2769876,-3.0795193,3.395404,3.4493575,-2.323336,-1.9473833,1.0747216
sub-324255_fdg_template_reg_mcalt_SyN_v20221013_1004,1.6888765,-3.8744984,-4.069247,4.8449078,-2.2951446,4.833092,-3.1454504,-9.174198,3.4431221,-6.461408,-3.3611443,3.5597572,3.5384798,-2.4764192,-2.0343933,0.79845774
sub-845679_fdg_template_reg_mcalt_SyN_v20221013_7,1.7644527,-3.5817475,-4.2947874,4.4954147,-2.383606,4.6232376,-3.723722,-9.015118,3.4018738,-6.1339912,-3.6350918,3.196696,3.765281,-2.7955265,-2.0856462,0.604606
sub-317876_fdg_template_reg_mcalt_SyN_v20221013_1004,1.6666627,-3.4545305,-3.9916244,4.2956066,-2.277893,4.7321663,-3.9601407,-8.626093,3.447845,-6.282399,-3.6826303,2.9588745,3.8486922,-3.3195317,-2.140588,0.54345393
sub-598057_fdg_template_reg_mcalt_SyN_v20221013_1008,1.9966495,-3.573298,-4.223212,4.804422,-2.22405,4.569105,-3.688302,-8.807896,3.5973592,-6.192873,-3.3089223,3.144055,3.632818,-2.8400733,-1.9975803,0.5177554
sub-94097_fdg_template_reg_mcalt_SyN_v20221013_1006,1.7342371,-3.6387053,-4.6600513,5.048922,-2.331762,4.716365,-3.2295716,-9.693235,3.7165046,-6.1410065,-3.5271957,3.4183264,3.6241944,-2.1559663,-2.1801355,0.97580695
sub-11870_fdg_template_reg_mcalt_SyN_v20221013_120,1.6284579,-3.351741,-4.3569436,4.0619984,-2.236075,4.5139294,-3.6770153,-9.049943,3.4183347,-6.2591066,-3.8262613,3.1341152,4.0396624,-2.979216,-2.6003332,0.43830997
sub-376064_fdg_template_reg_mcalt_SyN_v20221013_1009,1.5653204,-3.6950965,-4.154509,4.606568,-2.282606,4.872365,-3.5805082,-8.927567,3.6147697,-6.4112625,-3.5258565,3.090861,3.617783,-2.7816334,-2.0635173,0.7335469
sub-136180_fdg_template_reg_mcalt_SyN_v20221013_1007,1.8594935,-2.7069755,-4.2939873,4.4451375,-2.0912173,4.4069886,-4.1514716,-8.641778,3.5188847,-5.6147513,-4.7384796,2.6321926,3.8829355,-3.4892197,-2.2081397,0.5356738
sub-655961_fdg_template_reg_mcalt_SyN_v20221013_1005,1.6218795,-3.4585,-3.783573,4.54842,-2.478816,4.711798,-3.6132014,-8.855761,3.4012759,-6.4705863,-3.5691383,3.1525927,3.6702008,-2.8451958,-2.1932645,0.55044836
sub-763047_fdg_template_reg_mcalt_SyN_v20221013_1005,1.7439834,-3.7402537,-4.1862354,4.7172217,-2.081434,4.866733,-3.4455109,-8.902628,3.3902607,-6.21866,-3.167913,3.3123074,3.6456544,-2.8426206,-2.0685728,0.7310562
sub-475604_fdg_template_reg_mcalt_SyN_v20221013_120,1.7848262,-3.680959,-4.1236205,4.5998054,-2.4433513,4.6811504,-3.357985,-8.926305,3.3783362,-6.318283,-3.614243,3.3456867,3.6195605,-2.6759512,-2.184369,0.67286533
sub-163946_fdg_template_reg_mcalt_SyN_v20221013_1004,1.6953542,-3.8325782,-3.8591237,4.7968636,-2.5561187,4.725353,-2.974175,-9.154524,3.4126763,-6.573673,-3.5554996,3.541445,3.5439684,-2.368259,-1.8641511,0.6685575
sub-923163_fdg_template_reg_mcalt_SyN_v20221013_1004,1.7113329,-3.6914976,-4.143837,4.741596,-2.1402626,4.899461,-3.281742,-9.246759,3.557924,-6.4356155,-3.2333827,3.5017738,3.6742482,-2.7062967,-2.1135135,0.63704497
sub-239168_fdg_template_reg_mcalt_SyN_v20221013_120,1.6859798,-3.655196,-4.2467837,4.653967,-2.2910705,4.787362,-3.3944008,-9.062222,3.4715836,-6.347936,-3.3930006,3.4980695,3.6435523,-2.6268501,-2.1408207,0.72745
sub-93412_fdg_template_reg_mcalt_SyN_v20221013_1008,1.8512654,-3.6672316,-4.1553645,4.5767913,-2.3033977,4.7660275,-3.479595,-8.847536,3.4296842,-6.420081,-3.4740982,3.2553852,3.7097738,-2.6851456,-2.1525872,0.9632909
sub-842097_fdg_template_reg_mcalt_SyN_v20221013_5,1.6731156,-3.7038436,-4.122481,4.6719303,-2.1902874,4.780738,-3.478845,-8.998883,3.4272673,-6.227478,-3.4916735,3.3090618,3.6414156,-2.6935172,-2.2058225,0.6316081
sub-273924_fdg_template_reg_mcalt_SyN_v20221013_120,1.6020025,-3.4545593,-4.305677,4.013774,-2.032908,4.981897,-3.8305695,-8.642634,3.6834722,-6.429712,-3.3786278,2.7912269,3.9370203,-3.0161936,-2.0103579,0.82648313
sub-506059_fdg_template_reg_mcalt_SyN_v20221013_1010,1.8605136,-3.9803648,-3.8467648,5.301698,-2.4626095,4.759472,-3.0538907,-9.390359,3.577476,-6.4117193,-3.4841795,3.6024554,3.5579665,-2.2096927,-1.8859544,0.65471965
sub-189406_fdg_template_reg_mcalt_SyN_v20221013_5,1.5247881,-3.8933148,-4.3331423,5.32236,-2.2111683,4.6294575,-3.2346313,-9.804332,3.298051,-6.0174646,-3.3675494,3.6393895,3.2681053,-2.4989388,-2.2058682,0.49274316
sub-443948_fdg_template_reg_mcalt_SyN_v20221013_1010,1.8075686,-3.0007768,-4.2246943,4.7079988,-2.2019248,4.581647,-3.8749654,-8.907213,3.5954275,-5.8797245,-3.9926064,2.9591935,3.8670971,-3.1474435,-1.843024,0.56940484
sub-243850_fdg_template_reg_mcalt_SyN_v20221013_12,1.6548237,-3.8631625,-4.082394,4.872303,-2.1364596,4.947609,-3.2736304,-9.340739,3.4173043,-6.318072,-3.160622,3.5897884,3.483769,-2.6005855,-2.0586722,0.68652266
sub-738993_fdg_template_reg_mcalt_SyN_v20221013_1005,1.6731493,-3.6364713,-4.37078,4.7012615,-1.7911863,4.8848443,-3.449078,-9.385971,3.5528755,-6.083522,-3.2561545,3.3155801,3.4328196,-2.8371334,-1.9046088,1.0085466
sub-290601_fdg_template_reg_mcalt_SyN_v20221013_1005,1.7449746,-4.257935,-4.073846,5.1619344,-2.4291785,4.8873744,-2.8010335,-9.452354,3.5516584,-6.5136375,-3.1622756,3.6371384,3.3670793,-2.1080494,-1.8492908,0.6233146
sub-230899_fdg_template_reg_mcalt_SyN_v20221013_1005,1.4446295,-4.0488567,-4.197497,4.909849,-2.4313703,4.7788315,-2.9906218,-9.583876,3.2382681,-6.319482,-3.220908,3.5283437,3.4257996,-2.2618601,-2.0482323,0.6719942
sub-952641_fdg_template_reg_mcalt_SyN_v20221013_1009,2.0257318,-2.7270694,-4.2879243,3.9733868,-2.1412973,4.446614,-3.9614162,-8.320755,3.8024418,-6.1187234,-4.3247204,3.0724735,4.4786005,-3.0031962,-1.91742,0.99250096
sub-25948_fdg_template_reg_mcalt_SyN_v20221013_1006,1.7699168,-3.5448651,-4.2295675,5.042406,-1.8026086,4.789866,-3.8193767,-9.449553,3.1803038,-5.9470387,-3.2741413,3.335573,3.4754837,-3.4675431,-2.3542366,0.33744466
sub-733588_fdg_template_reg_mcalt_SyN_v20221013_1006,1.3919213,-3.937289,-3.8215008,5.065997,-2.542001,4.798536,-3.1921952,-9.51003,3.239072,-6.401222,-3.5171466,3.5487688,3.3099697,-2.4281168,-2.025858,0.3892784
sub-128198_fdg_template_reg_mcalt_SyN_v20221013_1005,1.5267143,-3.7587912,-4.582748,5.066293,-2.1369615,4.803665,-3.1826363,-9.724787,3.4626777,-5.9338036,-3.2589147,3.6562262,3.406726,-2.5022943,-2.1755774,0.6713643
sub-800954_fdg_template_reg_mcalt_SyN_v20221013_12,1.695057,-3.517869,-4.3437023,4.321741,-2.330938,4.6075444,-3.5730119,-9.121562,3.4713361,-6.331201,-3.5878453,3.2620997,3.6637836,-2.753399,-1.99613,0.7765288
sub-356952_fdg_template_reg_mcalt_SyN_v20221013_120,1.7045474,-3.6899107,-4.087966,4.682792,-2.492102,4.7546644,-3.3071928,-9.031803,3.510723,-6.4717135,-3.490461,3.396484,3.5667927,-2.4990423,-2.1165297,0.85694176
sub-936727_fdg_template_reg_mcalt_SyN_v20221013_1008,1.4021791,-3.519538,-4.006106,4.241552,-2.221489,4.60011,-3.9881074,-9.066152,3.0817971,-6.005181,-3.770637,3.0166097,3.8508484,-3.337134,-2.424631,0.20801243
sub-149424_fdg_template_reg_mcalt_SyN_v20221013_1005,1.8098118,-3.4755976,-4.104547,4.09199,-2.4991841,4.7779913,-3.7246263,-8.451008,3.5970743,-6.6329713,-3.6073477,2.8716927,3.9445016,-2.8972845,-1.9963745,0.8178897
sub-599643_fdg_template_reg_mcalt_SyN_v20221013_12,1.9116601,-3.6014502,-3.7958746,4.5413804,-2.7151628,4.4947605,-3.3887079,-8.977309,3.5951502,-6.6589904,-3.7104635,3.4415283,3.774391,-2.1398249,-1.7757573,0.87099874
sub-458749_fdg_template_reg_mcalt_SyN_v20221013_120,2.0686,-3.541504,-4.0060754,4.5747814,-2.4698389,4.490816,-3.9341562,-8.7550745,3.6486993,-6.2846828,-3.5620282,3.0405815,3.6904652,-2.6134133,-2.031026,0.6754987
sub-880657_fdg_template_reg_mcalt_SyN_v20221013_1007,1.9619027,-3.7858915,-4.5657916,5.5697646,-2.7669406,4.130619,-3.7125268,-9.366549,3.362337,-5.5163794,-3.4209359,2.734783,3.0816696,-2.5581934,-2.3377566,0.013251774
sub-931192_fdg_template_reg_mcalt_SyN_v20221013_1010,1.6487938,-4.02342,-4.2223716,4.807011,-2.2493992,5.005664,-3.0558863,-9.325315,3.5517128,-6.472097,-3.1476128,3.5304534,3.5221772,-2.3145623,-2.0090976,0.97614133
sub-904186_fdg_template_reg_mcalt_SyN_v20221013_1005,1.6267971,-3.6602006,-4.1166964,4.5945354,-2.4013302,4.730958,-3.5550833,-9.052156,3.4512415,-6.3075137,-3.4564154,3.2177484,3.8080049,-2.6783032,-2.0125523,0.49285802
sub-493045_fdg_template_reg_mcalt_SyN_v20221013_12,1.7130144,-3.7829955,-4.041213,4.8077345,-2.2447402,4.6851487,-3.3849957,-9.385834,3.5664272,-6.4884086,-3.3151755,3.530916,3.6046822,-2.521401,-2.2047698,0.6906787
sub-929812_fdg_template_reg_mcalt_SyN_v20221013_1005,2.1656895,-3.4435327,-4.3494983,4.7752056,-2.176702,4.378516,-3.687907,-9.233008,3.6333277,-6.1729913,-3.3124137,3.3921964,3.7105787,-2.5240514,-2.0522156,0.5435068
sub-53082_fdg_template_reg_mcalt_SyN_v20221013_1010,1.9676062,-3.57436,-4.346878,4.7399864,-2.165641,4.5558376,-3.816931,-9.013947,3.4658926,-5.9607887,-3.3212948,3.0407648,3.5501719,-2.9664154,-2.136574,0.59796613
sub-737815_fdg_template_reg_mcalt_SyN_v20221013_120,1.6190404,-3.781929,-4.055558,4.9230747,-2.3672318,4.7691307,-3.314901,-9.307531,3.3394618,-6.315461,-3.4104354,3.4713056,3.456482,-2.5049803,-2.0182676,0.70930237
sub-156482_fdg_template_reg_mcalt_SyN_v20221013_1008,1.7245485,-3.548459,-4.2337437,4.7420416,-2.3768528,4.606991,-3.6300964,-9.026526,3.3998775,-6.087585,-3.5883,3.146629,3.5720658,-3.0210521,-2.227209,0.5833187
sub-331854_fdg_template_reg_mcalt_SyN_v20221013_1006,1.6342398,-3.8284647,-4.082941,4.823783,-2.2475367,4.842448,-3.2724006,-9.104865,3.5748134,-6.398121,-3.2882943,3.425937,3.5219154,-2.5490606,-2.1453001,0.5639953
sub-150960_fdg_template_reg_mcalt_SyN_v20221013_6,1.730108,-3.9003098,-4.0941787,4.9038095,-2.3403044,4.8622727,-3.2349901,-9.11547,3.5808687,-6.33927,-3.3159852,3.385499,3.5292583,-2.4363697,-1.9214821,0.7207864
sub-93854_fdg_template_reg_mcalt_SyN_v20221013_12,1.6432091,-3.6494439,-4.073411,4.0150895,-2.439424,4.774794,-3.6663969,-8.60099,3.405247,-6.4279523,-3.7094383,2.9746428,3.8124192,-2.9735024,-2.0329187,0.8138169
sub-466906_fdg_template_reg_mcalt_SyN_v20221013_12,1.5820788,-3.9613824,-4.3422484,5.0764046,-2.0891514,4.81523,-3.2290485,-9.718364,3.358602,-6.149004,-3.1101263,3.643072,3.3259785,-2.5450509,-2.2365816,0.6986396
sub-322397_fdg_template_reg_mcalt_SyN_v20221013_12,1.6649251,-3.537818,-4.422779,4.55631,-2.323869,4.6764116,-3.4007392,-9.331326,3.4157345,-6.1356926,-3.497854,3.3967507,3.5825021,-2.7306151,-2.109689,0.7980798
sub-94281_fdg_template_reg_mcalt_SyN_v20221013_12,1.6681728,-3.6791456,-3.8954527,4.917038,-2.3737059,4.660786,-3.4331596,-9.595608,3.5157506,-6.3254733,-3.4849477,3.234959,3.490167,-2.5453491,-2.1070836,0.5285507
sub-258289_fdg_template_reg_mcalt_SyN_v20221013_5,1.7104568,-3.9845972,-4.1416826,5.11517,-2.2773683,4.9118376,-2.903596,-9.362865,3.5980937,-6.4402785,-3.2526271,3.6380172,3.3567224,-2.3511066,-2.1418877,0.876735
sub-159680_fdg_template_reg_mcalt_SyN_v20221013_120,2.3529,-3.3666306,-3.9984815,4.4441323,-2.6483603,4.244197,-4.270752,-8.14167,3.8712132,-6.220515,-3.567409,2.7300978,4.040116,-2.5862198,-2.1185212,0.58189976
sub-346113_fdg_template_reg_mcalt_SyN_v20221013_1007,1.5686016,-3.7363648,-4.5537105,4.5383196,-2.281541,4.6417303,-3.4213638,-9.37783,3.3195555,-6.0729203,-3.5639064,3.2766626,3.5222502,-2.4866996,-2.1074374,0.7790598
sub-598043_fdg_template_reg_mcalt_SyN_v20221013_1009,1.6885664,-3.815799,-4.1886735,4.8037744,-2.3676891,4.7965083,-3.3546462,-9.009679,3.4515722,-6.225704,-3.3110938,3.4543521,3.5849326,-2.6115468,-1.9387144,0.6516747
sub-65181_fdg_template_reg_mcalt_SyN_v20221013_5,1.532642,-3.472553,-4.187606,3.742267,-3.000371,3.9969125,-3.978263,-9.212988,3.1879785,-6.0531974,-3.8990116,3.0840497,3.9144692,-2.5407217,-2.3702621,0.22357056
sub-515665_fdg_template_reg_mcalt_SyN_v20221013_12,1.6960814,-3.676099,-4.154418,4.6220665,-2.2008133,4.8218613,-3.365574,-9.121426,3.3838196,-6.2110524,-3.4605787,3.4153376,3.685948,-2.7587638,-1.9799393,0.64165926
sub-238707_fdg_template_reg_mcalt_SyN_v20221013_1005,1.9467591,-3.725316,-4.750401,4.6970177,-2.2633119,4.808966,-3.3334832,-9.1687,3.6500182,-6.137694,-3.1733813,3.317084,3.5574217,-2.499221,-1.9713916,0.8619412
sub-989780_fdg_template_reg_mcalt_SyN_v20221013_1007,1.7496907,-3.5578084,-4.4159546,4.470267,-2.19128,4.714143,-3.6350377,-8.840136,3.5933454,-6.1230597,-3.4649792,3.1327376,3.8533359,-2.629712,-2.0117528,0.7886854
sub-990997_fdg_template_reg_mcalt_SyN_v20221013_1007,1.9744132,-3.5146747,-4.418727,4.5556674,-2.1684437,4.847787,-3.5307968,-8.616609,3.6867948,-6.06619,-3.5320036,3.1036966,3.8598657,-2.6215503,-1.7247952,1.0414184
sub-382948_fdg_template_reg_mcalt_SyN_v20221013_12,1.551862,-3.2434278,-4.527407,4.1082444,-2.3044236,4.5335107,-3.6837373,-9.225831,3.6260953,-6.1789584,-3.6490715,3.165259,3.8369992,-2.542656,-2.0605345,1.0656829
sub-60498_fdg_template_reg_mcalt_SyN_v20221013_1005,1.7524842,-3.5394096,-4.181699,4.743147,-2.5774097,4.553845,-3.5848558,-9.20865,3.4291415,-6.1275945,-3.722527,3.190944,3.6529815,-2.6821818,-2.07792,0.44000438
sub-614265_fdg_template_reg_mcalt_SyN_v20221013_1009,1.5069063,-3.7725205,-4.386058,4.27518,-2.414103,4.5931025,-3.5220459,-9.204348,3.2419415,-6.08037,-3.604923,3.2249749,3.5968792,-2.723335,-2.1607466,0.6220656
sub-65823_fdg_template_reg_mcalt_SyN_v20221013_1005,1.6024637,-3.9077654,-4.0283155,4.945108,-2.365286,4.661939,-3.245316,-9.472697,3.3370333,-6.2696114,-3.4613817,3.5103207,3.3185174,-2.709531,-2.202673,0.55371
sub-56258_fdg_template_reg_mcalt_SyN_v20221013_1005,1.4253262,-3.9052706,-4.1809816,4.7593126,-2.2169354,4.8640947,-3.4958048,-9.459471,3.4245367,-6.2029147,-3.3005052,3.2367814,3.43449,-2.6799395,-2.1709166,0.5767083
sub-440942_fdg_template_reg_mcalt_SyN_v20221013_1008,2.2041361,-2.7395365,-3.826544,4.5149503,-2.2984486,4.224912,-4.328858,-8.104731,3.8915224,-6.1509876,-3.998898,2.8963027,4.19919,-3.0882287,-2.2597294,0.6464212
sub-749283_fdg_template_reg_mcalt_SyN_v20221013_9,1.7057732,-3.4284348,-4.0433316,4.797344,-2.4815702,4.590547,-3.662108,-9.086158,3.6095707,-6.2348056,-3.604308,3.1742365,3.7689226,-2.5470712,-2.0682833,0.7358975
sub-355002_fdg_template_reg_mcalt_SyN_v20221013_1006,1.7080148,-3.446424,-4.3067155,4.359771,-2.4054239,4.67141,-3.6433504,-8.870746,3.5014727,-6.2023625,-3.646373,3.2304006,3.687689,-2.9072633,-2.18015,0.6804789
sub-665211_fdg_template_reg_mcalt_SyN_v20221013_4,1.9201272,-3.6377378,-4.911041,4.540111,-2.3754685,4.242946,-3.8233054,-9.39868,3.1886728,-5.633483,-3.4609702,3.0850334,3.4611745,-2.731126,-2.0504196,0.8218693
sub-980466_fdg_template_reg_mcalt_SyN_v20221013_1010,1.312103,-3.94739,-4.0093255,4.894208,-2.6177385,4.7111278,-3.0897355,-9.577753,3.2067914,-6.229029,-3.48051,3.5251603,3.2488756,-2.2722228,-2.2089748,0.5931525
sub-548450_fdg_template_reg_mcalt_SyN_v20221013_6,2.02796,-3.5283,-4.395104,4.38637,-2.4525304,4.4373546,-3.707464,-8.956008,3.5569394,-6.0148773,-3.7614827,3.1688056,3.7342808,-2.730094,-1.8824661,0.92769015
sub-247689_fdg_template_reg_mcalt_SyN_v20221013_1004,1.7417728,-3.7856064,-4.014989,4.737679,-2.1305835,5.023771,-3.4490778,-8.901695,3.4633656,-6.538979,-3.1981573,3.3151965,3.6900914,-2.8448887,-2.114413,0.47404292
sub-763210_fdg_template_reg_mcalt_SyN_v20221013_12,1.5988373,-4.0077815,-4.301032,5.003982,-2.1297753,4.897877,-2.9616923,-9.462131,3.3158379,-6.1875668,-3.1771982,3.6863165,3.3078358,-2.4971209,-2.0436845,0.67379355
sub-67770_fdg_template_reg_mcalt_SyN_v20221013_1009,1.5247883,-4.038803,-4.051713,5.015554,-2.35876,4.857133,-3.0213861,-9.556158,3.2447124,-6.2739387,-3.2518115,3.720498,3.272967,-2.2715285,-2.0512478,0.58716965
sub-2527_fdg_template_reg_mcalt_SyN_v20221013_5,1.7879366,-3.7668347,-4.2986474,4.977624,-2.1057818,4.7388544,-3.2488704,-9.362404,3.417527,-6.150988,-3.4569528,3.3989592,3.515375,-2.7030694,-2.1669931,0.6771306
sub-572193_fdg_template_reg_mcalt_SyN_v20221013_1006,1.9296416,-3.678237,-4.362508,4.792873,-2.374839,4.7298484,-3.315626,-9.068159,3.4931662,-6.28669,-3.4892998,3.476682,3.6874638,-2.6418698,-2.0377104,0.7653718
sub-222698_fdg_template_reg_mcalt_SyN_v20221013_5,1.6876677,-3.7693453,-4.556223,4.893068,-2.2979493,4.80576,-3.1691813,-9.554756,3.6225302,-6.2973495,-3.1943893,3.4733503,3.4997492,-2.3763278,-2.2063706,0.7995646
sub-570456_fdg_template_reg_mcalt_SyN_v20221013_1004,1.8551421,-3.4099352,-4.61379,4.571568,-2.2578273,4.5484643,-3.5050695,-9.225702,3.6452756,-6.2231503,-3.4265847,3.2871146,3.7951243,-2.4650965,-2.1214364,0.7556435
sub-469994_fdg_template_reg_mcalt_SyN_v20221013_1010,2.0767958,-3.5282845,-4.3357005,4.533841,-2.3489385,4.6078143,-3.7718508,-8.632287,3.5681434,-6.2882786,-3.4837604,3.0103424,3.9693968,-2.6775723,-1.9223084,0.77014196
sub-893562_fdg_template_reg_mcalt_SyN_v20221013_12,1.6175658,-3.986518,-4.6421714,4.914009,-1.9027205,4.6920843,-3.388782,-10.053482,3.4736068,-6.0787706,-3.0119328,3.651026,3.372093,-2.3969674,-2.2491848,0.8245415
sub-877313_fdg_template_reg_mcalt_SyN_v20221013_120,1.6175389,-3.5741522,-4.17226,4.380595,-2.2302976,4.972262,-3.638719,-8.800991,3.6128204,-6.564439,-3.145504,3.0666773,3.754579,-2.860708,-2.153003,0.7880322
sub-815028_fdg_template_reg_mcalt_SyN_v20221013_1008,1.7007489,-3.833473,-4.247073,4.8321376,-2.0660794,4.958505,-3.3082328,-9.258188,3.442019,-6.3933706,-3.1289442,3.3212664,3.5922117,-2.64023,-2.0846603,0.744508
sub-390439_fdg_template_reg_mcalt_SyN_v20221013_6,1.662517,-3.3181863,-4.3064,3.5634537,-2.6555312,4.5270305,-3.9806352,-8.473303,3.5148957,-6.383199,-3.9179623,2.8754776,4.0843453,-2.9458468,-2.4274867,0.9395891
sub-832438_fdg_template_reg_mcalt_SyN_v20221013_12,1.5517062,-4.1468997,-2.011123,5.5873413,-4.9984856,4.3778543,-2.3792007,-9.109406,3.2957976,-6.789364,-4.522438,3.8522873,2.9538512,-1.3545895,-1.6989808,1.4888872
sub-73128_fdg_template_reg_mcalt_SyN_v20221013_1004,1.6126794,-3.8281207,-4.070134,4.7110577,-2.2233658,5.020123,-3.1349192,-9.047805,3.435509,-6.433293,-3.1585915,3.4176304,3.5485675,-2.832571,-2.3067198,0.6795269
sub-937369_fdg_template_reg_mcalt_SyN_v20221013_1007,2.5461233,-3.0087905,-3.616083,5.0738025,-2.6335921,3.6554306,-4.8758106,-8.228252,3.8160844,-5.9668374,-3.718769,2.667097,3.881389,-3.164453,-2.3595908,-0.2691045
sub-377343_fdg_template_reg_mcalt_SyN_v20221013_1005,1.5407978,-3.7624006,-3.9175522,4.8263,-2.6422577,4.6918607,-3.1661236,-9.107968,3.345265,-6.381328,-3.4920745,3.4253304,3.5388768,-2.4173985,-1.9242277,0.6771124
sub-83205_fdg_template_reg_mcalt_SyN_v20221013_120,1.6056395,-3.4127507,-4.9149537,4.4483266,-2.413658,4.6011324,-3.7480638,-9.36542,3.693992,-6.026727,-3.1809962,2.9681516,3.4436696,-2.584634,-2.2806597,0.94201446
sub-970110_fdg_template_reg_mcalt_SyN_v20221013_12,1.5253599,-3.7457912,-4.56144,4.6376996,-2.2321837,4.761393,-3.3109066,-9.423974,3.3509238,-6.1018753,-3.2908924,3.3892674,3.443525,-2.5107727,-2.1843522,1.0883049
sub-785238_fdg_template_reg_mcalt_SyN_v20221013_1009,1.9270468,-3.6218364,-4.36495,4.568914,-2.4147189,4.494619,-3.5746727,-8.98552,3.5077984,-6.291248,-3.3431647,3.2937088,3.7356389,-2.5693133,-1.9919971,0.7881816
sub-299186_fdg_template_reg_mcalt_SyN_v20221013_120,2.3091664,-2.7125194,-4.3706355,4.74721,-2.0993729,4.329013,-3.7496407,-8.644881,4.015153,-5.830325,-3.8656232,3.0095606,3.7537801,-3.1429837,-1.8785862,0.882337
sub-776464_fdg_template_reg_mcalt_SyN_v20221013_5,1.6731439,-3.7779138,-4.15192,4.84396,-2.1848247,4.806079,-3.3175144,-9.063464,3.449253,-6.242906,-3.2695856,3.3393767,3.5359976,-2.5875785,-2.1192744,0.82090867
sub-765390_fdg_template_reg_mcalt_SyN_v20221013_12,1.9920981,-3.3182893,-4.6754136,4.176928,-2.3526716,4.4444427,-4.1468544,-8.86661,3.776165,-6.0328784,-3.430061,2.8164215,3.8800912,-2.8265688,-2.4607148,0.43246537
sub-406372_fdg_template_reg_mcalt_SyN_v20221013_1008,2.2753282,-3.119482,-3.8438709,4.4897,-2.9185545,4.100279,-4.317599,-8.267246,3.7859395,-6.220988,-4.0249195,2.9412608,3.9963133,-3.0549967,-2.3465796,0.42648876
sub-527674_fdg_template_reg_mcalt_SyN_v20221013_1005,1.5264162,-3.7144382,-4.2963753,4.7110524,-2.3508356,4.6551285,-3.3478458,-9.379696,3.4474597,-6.2362876,-3.407588,3.3752127,3.4425983,-2.6182938,-2.0952604,0.671956
sub-21384_fdg_template_reg_mcalt_SyN_v20221013_120,2.5323474,-3.2422767,-4.3679075,5.0217943,-2.140581,4.390865,-3.735033,-8.370161,3.920662,-6.2839365,-3.4318647,3.4161453,4.2129917,-2.7491958,-1.9490653,0.71452254
sub-176474_fdg_template_reg_mcalt_SyN_v20221013_12,1.6278898,-3.6794329,-3.9371517,4.709838,-1.9743133,4.9324617,-3.339782,-9.107027,3.5392394,-6.513817,-3.3038878,3.3260758,3.6948545,-2.8695984,-2.003135,0.6165776
sub-730091_fdg_template_reg_mcalt_SyN_v20221013_120,1.7072272,-3.5119784,-4.652987,4.644365,-2.2390878,4.7262583,-3.1802726,-9.636816,3.5833986,-6.124743,-3.5613968,3.4778538,3.910516,-2.3645303,-2.1420007,0.9634756
sub-551719_fdg_template_reg_mcalt_SyN_v20221013_1007,1.568154,-3.5773842,-4.726713,4.7216816,-2.068914,4.6108885,-3.4672453,-9.625904,3.2651052,-5.687804,-3.5757215,3.146102,3.452421,-3.0150928,-2.2257397,0.6328974
sub-800564_fdg_template_reg_mcalt_SyN_v20221013_1006,1.9330044,-3.5320537,-4.430389,4.4570045,-2.5056412,4.478221,-3.7625325,-8.930158,3.6283333,-6.116635,-3.6175816,3.0570247,3.7595031,-2.5239604,-2.0670922,1.0153294
sub-233265_fdg_template_reg_mcalt_SyN_v20221013_1007,1.9135277,-3.5200727,-3.882365,4.687784,-2.3355265,4.6957912,-3.846847,-8.534734,3.604982,-6.4694757,-3.2473261,3.0492158,3.8483636,-2.801876,-1.9898521,0.53911763
sub-95684_fdg_template_reg_mcalt_SyN_v20221013_1006,1.7203075,-3.8794425,-4.037266,4.747859,-2.4711082,4.8682036,-3.0757518,-9.076263,3.5511675,-6.5444074,-3.3614235,3.3815742,3.5800598,-2.4228556,-2.0954425,0.7354915
sub-410419_fdg_template_reg_mcalt_SyN_v20221013_1006,1.778367,-3.3733208,-4.38837,4.168812,-2.5336294,4.497179,-3.6571305,-8.747854,3.6402974,-6.315736,-3.6414478,2.9117548,3.9338896,-2.4945168,-2.0969925,0.9796542
sub-511122_fdg_template_reg_mcalt_SyN_v20221013_120,2.333311,-3.0408688,-4.203765,5.8922434,-1.8279766,4.311124,-4.134546,-9.057595,3.900505,-5.3843985,-3.5283546,3.0975268,3.2203515,-3.2671347,-1.7869306,0.5448619
sub-800805_fdg_template_reg_mcalt_SyN_v20221013_1006,1.6480806,-3.632872,-4.2204223,4.63909,-2.4481108,4.5567675,-3.4749095,-9.253448,3.538266,-6.3007655,-3.491671,3.2805128,3.601016,-2.3733423,-1.9964739,0.7347387
sub-681729_fdg_template_reg_mcalt_SyN_v20221013_7,1.5875909,-3.377178,-4.268699,4.4296174,-2.5834062,4.456194,-3.6095154,-9.19401,3.5309205,-6.3112526,-3.7380142,2.9267902,3.7969804,-2.5232952,-2.133862,0.59002244
sub-7625_fdg_template_reg_mcalt_SyN_v20221013_120,1.8791659,-3.2673864,-4.147149,3.878731,-2.2704983,4.6443043,-4.1782303,-8.523383,3.8285887,-6.6678824,-3.3858368,2.9750233,4.0752068,-3.0611837,-2.5482402,0.5811827
sub-220750_fdg_template_reg_mcalt_SyN_v20221013_5,1.5662866,-3.7532494,-4.411424,4.7506013,-2.3274987,4.7046347,-3.202149,-9.392131,3.4802148,-6.1932917,-3.4521124,3.514756,3.5421176,-2.4576902,-2.073717,0.6837839
sub-385416_fdg_template_reg_mcalt_SyN_v20221013_1007,1.4509203,-3.710502,-4.4575806,4.6273823,-2.3208394,4.905221,-3.3664947,-9.463503,3.605967,-6.2927246,-3.1660051,3.319181,3.6433344,-2.3566027,-2.3240354,0.9355671
sub-417042_fdg_template_reg_mcalt_SyN_v20221013_1006,1.728744,-3.727322,-4.31263,4.9241047,-2.2191706,4.7740884,-3.491459,-9.4379015,3.515719,-6.1423655,-3.2918367,3.3920128,3.4879751,-2.756246,-2.084767,0.6933762
sub-785742_fdg_template_reg_mcalt_SyN_v20221013_120,1.988082,-3.1987638,-4.8067994,4.1870813,-2.4849432,4.313395,-3.7941935,-9.135045,3.59634,-5.9970484,-3.5537155,3.033133,3.7719815,-2.5615683,-2.2353249,0.86241204
sub-726530_fdg_template_reg_mcalt_SyN_v20221013_5,1.8316507,-3.6816845,-4.114598,4.9497504,-2.2381349,4.826225,-3.339375,-9.020909,3.696382,-6.4326015,-3.2632136,3.3992553,3.6915314,-2.48304,-1.988922,0.74695575
sub-504046_fdg_template_reg_mcalt_SyN_v20221013_12,1.5852069,-3.6797974,-3.78076,4.6632,-2.3619628,4.656016,-3.5396967,-9.185057,3.3432498,-6.4057527,-3.6390357,3.4359765,3.740769,-2.5742555,-1.9874847,0.5022591
sub-230579_fdg_template_reg_mcalt_SyN_v20221013_1006,1.6157662,-3.507866,-4.127265,4.3997717,-2.2238626,4.6955223,-3.4898224,-8.868721,3.522676,-6.440681,-3.5747972,3.2431138,3.7696795,-2.66747,-2.1593933,0.76898444
sub-243480_fdg_template_reg_mcalt_SyN_v20221013_1008,1.735113,-3.486274,-4.2812667,4.655527,-2.1840103,4.608245,-3.6005397,-9.202391,3.4397397,-6.256435,-3.3973036,3.1857808,3.5546398,-2.866325,-2.3761022,0.58929116
sub-256302_fdg_template_reg_mcalt_SyN_v20221013_1007,1.9835255,-3.4531953,-4.405267,4.109521,-2.3938646,4.7057185,-3.696201,-8.45513,3.7684362,-6.60071,-3.4791756,3.0534503,4.0371957,-2.6953216,-2.089954,0.96619517
sub-366186_fdg_template_reg_mcalt_SyN_v20221013_7,2.0863454,-3.5954263,-4.450929,5.1343446,-2.3113325,4.500142,-3.6469085,-9.335965,3.8896801,-5.7920723,-3.3347256,3.3269598,3.4521942,-2.320776,-1.6040717,0.86367905
sub-694277_fdg_template_reg_mcalt_SyN_v20221013_120,1.7834804,-3.4849057,-3.930448,4.0595317,-2.5991971,4.671398,-3.510566,-8.817374,3.4901216,-6.7216105,-3.7051165,3.0769947,3.8823552,-2.5454013,-2.0001616,0.8163469
sub-418220_fdg_template_reg_mcalt_SyN_v20221013_5,1.857222,-3.7383692,-4.4580812,4.774319,-2.266512,4.7985377,-3.4879692,-9.256032,3.7320094,-6.165271,-3.2838845,3.3317537,3.5948536,-2.3256845,-2.08936,1.065709
sub-282223_fdg_template_reg_mcalt_SyN_v20221013_16469,1.5787227,-3.8075447,-4.3984094,4.883639,-1.7878646,4.9289427,-3.3999395,-9.712365,3.3935127,-6.1959586,-2.9241087,3.515867,3.458511,-2.7353988,-2.3080108,0.6871518
sub-227042_fdg_template_reg_mcalt_SyN_v20221013_5,2.2266629,-3.1533933,-4.00707,4.9202228,-2.330169,4.3785458,-4.1411543,-8.558163,3.8038034,-5.9731765,-3.913828,3.1373372,3.9620097,-2.7770178,-1.8485765,0.51914865
sub-413786_fdg_template_reg_mcalt_SyN_v20221013_12,1.665175,-3.8371806,-4.072215,4.4741607,-2.336633,4.9336863,-3.3946953,-9.0425205,3.4637697,-6.5012374,-3.3662512,3.2704365,3.6413631,-2.6266823,-2.005729,0.8213823
sub-158012_fdg_template_reg_mcalt_SyN_v20221013_1009,1.6285965,-3.886139,-4.3533955,4.8433414,-2.2818258,4.6946487,-3.3122222,-9.502376,3.2507317,-6.0876107,-3.458165,3.4252975,3.3878508,-2.676508,-2.284647,0.43574193
sub-99056_fdg_template_reg_mcalt_SyN_v20221013_1008,1.6389582,-3.9820971,-4.1031976,4.9981003,-2.3079956,4.868506,-3.0649025,-9.370513,3.6053793,-6.4827266,-3.043361,3.5411613,3.4996638,-2.2899914,-1.9538386,0.73146755
sub-242474_fdg_template_reg_mcalt_SyN_v20221013_12,1.3888179,-3.634367,-4.1643105,4.907336,-2.390085,4.5958924,-3.1530938,-9.838671,3.3442438,-6.198005,-3.5267096,3.5366452,3.4771266,-2.4435866,-2.1434338,0.5665748
sub-357290_fdg_template_reg_mcalt_SyN_v20221013_1007,1.65559,-3.650288,-4.6423526,4.793484,-2.528165,4.4835873,-3.5134325,-9.481665,3.6295874,-6.1147366,-3.3773685,3.0663357,3.5179398,-2.4811819,-2.4336553,0.6685198
sub-796832_fdg_template_reg_mcalt_SyN_v20221013_1006,1.5882642,-3.7010307,-4.1147437,4.712455,-2.2567408,4.730073,-3.4555194,-9.333038,3.413188,-6.288048,-3.4758096,3.4343574,3.572964,-2.6191158,-2.088922,0.7052751
sub-577848_fdg_template_reg_mcalt_SyN_v20221013_1004,1.7103199,-3.4411752,-4.159963,4.3540864,-2.3235037,4.739452,-3.664657,-8.841169,3.5632074,-6.3109784,-3.6342092,3.0943394,3.755108,-2.9043107,-2.1693528,0.58235526
sub-463380_fdg_template_reg_mcalt_SyN_v20221013_12,1.3942763,-3.9533231,-4.169267,5.0840993,-2.089179,4.8203444,-2.9664469,-9.834106,3.3039885,-6.248819,-3.2161756,3.8093889,3.324091,-2.6001694,-2.3179252,0.4430206
sub-672104_fdg_template_reg_mcalt_SyN_v20221013_1008,1.8202351,-3.4636269,-4.4058466,4.3925433,-2.1229596,4.662318,-3.8616202,-8.954982,3.455578,-6.250309,-3.3194523,3.1055288,3.7991948,-3.0927167,-2.2325695,0.49478662
sub-347867_fdg_template_reg_mcalt_SyN_v20221013_12,1.6627184,-3.5976102,-4.37701,4.683081,-2.349022,4.6266704,-3.3861892,-9.27513,3.4639862,-6.271483,-3.4777076,3.2550328,3.4820287,-2.6984046,-2.0522118,0.5842455
sub-995257_fdg_template_reg_mcalt_SyN_v20221013_1007,1.6165694,-3.862907,-4.0312247,4.739366,-2.4568365,4.622678,-3.4035254,-9.363253,3.3395805,-6.419946,-3.419032,3.4405427,3.5572097,-2.5709155,-2.1316066,0.59528226
sub-169423_fdg_template_reg_mcalt_SyN_v20221013_120,1.710757,-3.603887,-4.10522,4.444039,-2.2977464,4.7443695,-3.731198,-8.871656,3.4439495,-6.372613,-3.571406,3.2034643,3.740923,-2.872655,-2.0861382,0.6779592
sub-965000_fdg_template_reg_mcalt_SyN_v20221013_1006,1.6389656,-4.023146,-4.3331733,5.0644226,-2.1569679,4.7921557,-3.042778,-9.469191,3.2522628,-6.040145,-3.2797847,3.6800427,3.3545527,-2.4765923,-2.0251276,0.7629724
sub-835675_fdg_template_reg_mcalt_SyN_v20221013_9,1.7855188,-3.6492417,-4.0374475,4.380768,-2.2095616,4.9170904,-3.78446,-8.57707,3.6973524,-6.6494174,-3.3253515,3.038638,3.804191,-2.972698,-1.9283657,0.7564654
sub-912400_fdg_template_reg_mcalt_SyN_v20221013_12,1.6638583,-3.6881568,-4.0094166,4.4004793,-2.7058759,4.5357423,-3.2980475,-9.343938,3.4121852,-6.602296,-3.6502097,3.3288083,3.5609128,-2.376053,-2.038163,0.8380004
sub-98988_fdg_template_reg_mcalt_SyN_v20221013_12,1.5934919,-3.9350657,-3.898725,5.1045876,-1.9524405,5.1005397,-3.2125773,-9.301339,3.3006494,-6.360779,-3.1106489,3.6073306,3.3484921,-2.9105248,-2.1746886,0.61610687
sub-577676_fdg_template_reg_mcalt_SyN_v20221013_5,1.4702939,-3.6108766,-4.0438867,4.712674,-2.5205696,4.5289264,-3.4630368,-9.57499,3.282844,-6.255004,-3.7795198,3.4083006,3.5025687,-2.5182214,-2.2571223,0.51036334
sub-608262_fdg_template_reg_mcalt_SyN_v20221013_120,1.8410764,-3.6076841,-4.116725,4.6222153,-2.4243593,4.7372828,-3.5157065,-8.927245,3.6746817,-6.4701457,-3.4674256,3.2124348,3.6925611,-2.448059,-2.093813,0.8522123
sub-13913_fdg_template_reg_mcalt_SyN_v20221013_1009,1.8148698,-3.7679248,-4.4599843,5.1943502,-2.021994,4.727831,-3.4400082,-9.782618,3.4482386,-6.015598,-3.1919837,3.5531409,3.355384,-2.7605176,-2.3820672,0.5877941
sub-750915_fdg_template_reg_mcalt_SyN_v20221013_7,1.8162074,-3.5543385,-4.539507,4.443715,-2.3345928,4.5552344,-3.8179202,-8.953924,3.4759486,-6.092886,-3.5725577,2.9558103,3.7207968,-2.8088863,-2.1939218,0.9195205
sub-11162_fdg_template_reg_mcalt_SyN_v20221013_1005,1.6800641,-3.679133,-4.362524,4.82095,-2.2841198,4.666317,-3.3176215,-9.439355,3.3916779,-6.221496,-3.4386184,3.5189605,3.5917497,-2.724283,-2.2229202,0.34703177
sub-892795_fdg_template_reg_mcalt_SyN_v20221013_1008,1.4485209,-3.9232392,-4.2014785,5.091427,-2.5015872,4.6821547,-2.8068194,-10.102116,3.4527495,-6.3433795,-3.4314444,3.8274162,3.2376485,-2.11071,-2.2768838,0.59484977
sub-615484_fdg_template_reg_mcalt_SyN_v20221013_12,1.7690574,-3.5815928,-4.361456,4.354035,-2.4207184,4.680568,-3.5864587,-9.063105,3.629325,-6.473509,-3.3253698,3.0773904,3.660029,-2.5880525,-2.1104708,0.8415517
sub-545130_fdg_template_reg_mcalt_SyN_v20221013_1010,1.76461,-3.6851368,-4.1260066,4.9370546,-2.4145699,4.740793,-3.4120536,-9.177465,3.5278366,-6.272401,-3.4971797,3.367872,3.6500163,-2.7299523,-1.9997492,0.630382
sub-261179_fdg_template_reg_mcalt_SyN_v20221013_1006,1.6902394,-3.5791183,-4.3574963,4.5256844,-2.3742647,4.7110615,-3.656934,-9.131065,3.553056,-6.219731,-3.4773593,3.2463133,3.64034,-2.7518947,-2.2701726,0.71577907
sub-951229_fdg_template_reg_mcalt_SyN_v20221013_5,1.7662188,-3.6111906,-4.4544353,4.7586613,-2.2571545,4.7234483,-3.3615558,-9.271986,3.392931,-6.079869,-3.4374516,3.4895654,3.6201136,-2.626822,-2.1152096,0.84272504
sub-157020_fdg_template_reg_mcalt_SyN_v20221013_1008,1.855795,-3.3087225,-4.079082,4.3877416,-2.0345676,4.706892,-3.7100475,-8.835179,3.6524591,-6.1844277,-3.442016,3.3941295,3.809817,-3.0919137,-2.0706778,0.68952936
sub-329057_fdg_template_reg_mcalt_SyN_v20221013_5,1.6573963,-3.7167785,-4.1766677,4.9317365,-2.045563,4.804477,-3.1651077,-9.379726,3.4122205,-6.272533,-3.3497014,3.4824195,3.5129278,-2.6533303,-2.0854104,0.6167509
sub-829529_fdg_template_reg_mcalt_SyN_v20221013_13,2.1035788,-3.1574876,-4.187228,5.140307,-2.1664052,4.336614,-4.1473236,-9.069384,3.7294195,-5.761801,-3.7699227,2.8226614,3.5666437,-3.0108166,-1.8846123,0.51812387
sub-843747_fdg_template_reg_mcalt_SyN_v20221013_1005,2.412451,-2.994105,-3.9440095,4.4422045,-2.571426,4.4132605,-4.246823,-7.7392464,4.3261456,-6.4329276,-3.792061,2.7029564,4.250258,-2.660157,-1.8978523,0.8681149
sub-322516_fdg_template_reg_mcalt_SyN_v20221013_12,1.5446614,-4.0205674,-4.0030737,4.817539,-2.2748382,4.892786,-3.0939195,-9.310656,3.3293364,-6.4549904,-3.2214985,3.5471425,3.610592,-2.5674362,-2.145099,0.6601934
sub-557553_fdg_template_reg_mcalt_SyN_v20221013_12,1.6622267,-3.594115,-4.060969,4.6359544,-2.2412386,4.8430023,-3.3451,-8.941669,3.4990172,-6.412804,-3.3959174,3.4028635,3.6799183,-2.673441,-2.0964491,0.7546592
sub-851943_fdg_template_reg_mcalt_SyN_v20221013_1010,2.435465,-3.152252,-3.6224713,4.3570538,-2.9756193,4.0697427,-4.2435145,-8.080488,3.9293995,-6.611409,-3.875713,2.8054304,4.1611547,-2.3226738,-2.0421605,0.520918
sub-85649_fdg_template_reg_mcalt_SyN_v20221013_1007,1.6033747,-3.56107,-4.085456,4.113161,-2.4226394,4.728881,-3.5616522,-8.902019,3.3932424,-6.4567065,-3.5899644,3.1297622,3.8374145,-2.8421104,-2.1631012,0.85710365
sub-930677_fdg_template_reg_mcalt_SyN_v20221013_12,1.5850054,-3.8478308,-3.884276,4.7137256,-2.4708278,4.6276755,-3.2731729,-9.365712,3.3562331,-6.463395,-3.526103,3.4647713,3.5866451,-2.3935935,-1.9474449,0.5399955
sub-805642_fdg_template_reg_mcalt_SyN_v20221013_1009,0.98780054,-2.8929055,-4.1534963,3.4843256,-2.6289215,3.55694,-4.6870103,-9.756404,2.5677636,-5.6608677,-4.6483116,2.795608,3.8275409,-3.741835,-3.223839,-0.45095828
sub-243848_fdg_template_reg_mcalt_SyN_v20221013_1005,1.6016722,-3.7487912,-4.139233,4.8413186,-2.3149729,4.7390027,-3.3551643,-9.231881,3.349248,-6.2308455,-3.5603306,3.403191,3.5538704,-2.7426298,-2.205528,0.56526774
sub-909181_fdg_template_reg_mcalt_SyN_v20221013_1008,1.7222718,-3.7213588,-4.275818,4.3079247,-2.2654026,4.8233523,-3.3919895,-8.792276,3.5084226,-6.4290195,-3.268065,3.2071939,3.7281485,-2.772105,-2.021757,0.80760133
sub-719250_fdg_template_reg_mcalt_SyN_v20221013_1004,1.6946462,-3.7883093,-4.1534877,4.7583923,-2.2378101,4.8099265,-3.5242178,-9.03069,3.4384294,-6.2295485,-3.3319213,3.2406409,3.5314617,-2.799724,-2.072043,0.5550737
sub-780589_fdg_template_reg_mcalt_SyN_v20221013_5,1.5166314,-3.630064,-3.9577143,4.958999,-2.2741609,4.6997867,-3.1806672,-9.459049,3.4094903,-6.23088,-3.5484276,3.4702365,3.55374,-2.5489156,-2.0925164,0.60511136
sub-848519_fdg_template_reg_mcalt_SyN_v20221013_5,1.6334951,-3.5649674,-3.9807112,4.992084,-2.2558372,4.747637,-3.2326345,-9.281877,3.491932,-6.2534103,-3.5777633,3.475171,3.631892,-2.6465263,-2.1995416,0.6433704
sub-473865_fdg_template_reg_mcalt_SyN_v20221013_1007,1.6718398,-3.8317647,-4.560294,4.7975683,-2.3298206,4.510857,-3.367743,-9.595643,3.2220805,-6.0586214,-3.3868866,3.5949311,3.649452,-2.461664,-2.1996899,0.5708312
sub-127521_fdg_template_reg_mcalt_SyN_v20221013_1009,1.8329417,-3.4390702,-4.1493564,4.03301,-2.2218773,4.7840295,-3.8820472,-8.305886,3.70601,-6.4922166,-3.3937857,2.8476014,4.087167,-2.9761984,-2.0245543,0.94799256
sub-420445_fdg_template_reg_mcalt_SyN_v20221013_1008,1.6098197,-3.8436692,-4.0552435,4.772909,-2.331656,4.8806186,-3.2866218,-9.19369,3.339635,-6.2711077,-3.4207067,3.489651,3.6036234,-2.4159951,-2.012966,0.7085429
sub-654607_fdg_template_reg_mcalt_SyN_v20221013_1007,1.547277,-3.6835947,-4.1601257,4.681085,-2.1925945,4.687375,-3.4615786,-9.337999,3.3834338,-6.3243093,-3.487159,3.4201903,3.535725,-2.7265196,-2.1465354,0.7022572
sub-317110_fdg_template_reg_mcalt_SyN_v20221013_1006,1.7098314,-3.3672612,-4.2115397,4.4190555,-2.3542016,4.580305,-3.7530572,-8.814509,3.6893072,-6.3657064,-3.5703232,3.0290654,3.7998424,-2.6093976,-2.0396826,0.8098829
sub-961679_fdg_template_reg_mcalt_SyN_v20221013_120,1.4780871,-3.769606,-4.4629655,4.3910317,-2.3142722,4.8587384,-3.2652707,-9.257808,3.374093,-6.321778,-3.328493,3.310868,3.5944226,-2.675488,-2.2927134,0.8234463
sub-96635_fdg_template_reg_mcalt_SyN_v20221013_1005,1.7026162,-3.4792578,-4.272833,4.233693,-2.388235,4.675213,-3.6208594,-8.786195,3.598257,-6.2667503,-3.6022093,3.1631749,3.8210986,-2.6850414,-2.0602725,0.9028168
sub-193730_fdg_template_reg_mcalt_SyN_v20221013_12,1.6201243,-3.5991716,-4.2370753,4.61302,-2.041023,4.8715863,-3.3647714,-9.094855,3.521465,-6.347849,-3.310154,3.3665497,3.7422028,-2.7478945,-1.9534649,0.85342985
sub-423291_fdg_template_reg_mcalt_SyN_v20221013_5,1.6534429,-3.49817,-4.297162,4.394093,-2.4854898,4.6292195,-3.370084,-9.0869875,3.4826703,-6.331169,-3.7453015,3.2571971,3.7547216,-2.6452658,-1.931286,0.7275948
sub-434314_fdg_template_reg_mcalt_SyN_v20221013_12,1.7525972,-3.6764371,-4.5799336,4.6286273,-2.144634,4.678146,-3.3178728,-9.547878,3.5554066,-6.3023915,-3.2486892,3.3955722,3.5936308,-2.545385,-2.0939903,0.9284734
sub-902104_fdg_template_reg_mcalt_SyN_v20221013_1005,1.9846046,-3.2925541,-4.477734,4.5237207,-2.2528548,4.2601466,-4.0884256,-9.277904,3.3638554,-6.023964,-3.583295,3.1682088,3.7617962,-2.930735,-2.29461,0.4229705
sub-303225_fdg_template_reg_mcalt_SyN_v20221013_1007,1.6945848,-3.627505,-3.9974601,4.7800293,-2.4348695,4.6461086,-3.3849344,-9.250372,3.4086924,-6.233615,-3.5664473,3.3992004,3.6351209,-2.4589045,-2.0115476,0.64232296
sub-914298_fdg_template_reg_mcalt_SyN_v20221013_1009,2.3147047,-3.3400893,-4.3518653,4.7174573,-2.341678,4.1830387,-4.159603,-8.879505,3.4548016,-5.762484,-3.8430948,2.9638453,3.8379319,-2.895251,-1.9821246,0.26349118
sub-900255_fdg_template_reg_mcalt_SyN_v20221013_120,1.725323,-3.7907865,-4.2399716,4.720722,-2.3148408,4.865394,-3.3412611,-9.145525,3.715144,-6.551944,-3.2608302,3.2380643,3.6878858,-2.3742025,-1.8861096,0.85198647
sub-134869_fdg_template_reg_mcalt_SyN_v20221013_12,1.6972207,-3.8520231,-4.3052225,5.2389092,-2.0515747,4.9035516,-3.0490563,-9.309674,3.3009827,-5.948278,-3.4039385,3.506761,3.4108112,-2.8357732,-1.9237967,0.7090398
sub-600987_fdg_template_reg_mcalt_SyN_v20221013_12,1.6222413,-3.8603678,-3.7397845,4.8748856,-2.19286,4.81404,-3.2040539,-9.466436,3.376676,-6.6029825,-3.2137177,3.733737,3.3711615,-2.5707183,-2.1034794,0.6162193
sub-25119_fdg_template_reg_mcalt_SyN_v20221013_5,1.5988398,-3.7267478,-4.1572194,4.7238426,-2.3971555,4.81307,-3.274684,-9.168145,3.5310051,-6.327549,-3.4324205,3.3639424,3.5902593,-2.5976636,-2.1214035,0.75330204
sub-421730_fdg_template_reg_mcalt_SyN_v20221013_1006,1.531686,-3.7534273,-4.2768326,4.6832366,-2.3409972,4.7419295,-3.1725206,-9.336537,3.2145283,-6.1997304,-3.4722908,3.5305183,3.3731275,-2.6909332,-2.2272818,0.6857183
sub-41110_fdg_template_reg_mcalt_SyN_v20221013_1007,1.6251637,-3.5002546,-4.088672,4.329035,-2.3773131,4.77698,-3.6566696,-8.736446,3.5308762,-6.444664,-3.4501464,3.1634355,3.7883053,-2.8400648,-2.18284,0.7658114
sub-804805_fdg_template_reg_mcalt_SyN_v20221013_5,1.6997145,-3.677027,-4.1127367,4.616091,-2.321134,4.855753,-3.4803824,-9.252661,3.6759982,-6.4767933,-3.3468194,3.1618862,3.7463667,-2.4194508,-2.254351,0.68767357
sub-52339_fdg_template_reg_mcalt_SyN_v20221013_12,1.5622991,-3.6956527,-4.0797305,4.7203193,-2.1799588,4.8312607,-3.450354,-9.175217,3.508076,-6.35118,-3.1210268,3.2875602,3.527927,-2.665228,-2.214904,0.588088
sub-433979_fdg_template_reg_mcalt_SyN_v20221013_120,1.5394338,-3.6490853,-4.0059695,4.742678,-2.4600914,4.7073674,-3.4046633,-9.169108,3.3787923,-6.390863,-3.4872286,3.2474308,3.4801788,-2.7649019,-2.1434944,0.5771225
sub-850435_fdg_template_reg_mcalt_SyN_v20221013_1008,2.1503112,-3.7042832,-4.601591,5.012735,-2.702974,3.6710012,-4.582014,-9.399118,3.2320313,-5.3580613,-3.716685,2.7442336,3.3960533,-2.6240456,-2.013338,0.120332494
sub-764302_fdg_template_reg_mcalt_SyN_v20221013_1006,1.6726213,-3.6490936,-4.102871,4.632409,-2.2492855,4.8562827,-3.524111,-8.898972,3.5741537,-6.409831,-3.385575,3.2777348,3.6369944,-2.8823218,-2.2537994,0.73800504
sub-99737_fdg_template_reg_mcalt_SyN_v20221013_1009,1.5439968,-3.801049,-4.112171,4.579888,-2.3400447,4.769944,-3.3190317,-9.315678,3.233922,-6.339517,-3.4028916,3.4495294,3.4947386,-2.5625358,-2.2024503,0.77414125
sub-764925_fdg_template_reg_mcalt_SyN_v20221013_5,1.5962247,-3.6386647,-4.192216,4.212955,-2.432497,4.793906,-3.5801303,-8.836101,3.4899514,-6.5313063,-3.6080704,2.9995465,3.7408495,-2.5873463,-2.0708337,0.9950039
sub-524920_fdg_template_reg_mcalt_SyN_v20221013_1005,1.7545767,-3.6416373,-4.2919207,4.152062,-2.3786554,4.834276,-3.5185437,-8.627511,3.6442482,-6.539211,-3.3972669,3.2183762,3.872694,-2.652211,-2.1163087,0.94661564
sub-428921_fdg_template_reg_mcalt_SyN_v20221013_120,1.6567641,-3.89034,-4.4502115,4.705491,-2.23241,4.7239165,-3.2619052,-9.494203,3.3556418,-6.202553,-3.2563524,3.4416108,3.5362818,-2.716534,-2.3452537,0.63007045
sub-59700_fdg_template_reg_mcalt_SyN_v20221013_1008,1.6643848,-3.9049559,-3.8940978,5.11395,-2.2707314,4.9067855,-3.1252275,-9.404765,3.464317,-6.472008,-3.3378966,3.6965656,3.4239888,-2.4440691,-2.1101415,0.6136401
sub-751180_fdg_template_reg_mcalt_SyN_v20221013_5,1.6512464,-3.5739634,-4.112202,4.978478,-2.2452924,4.6952443,-3.6634128,-9.498099,3.5461,-6.065083,-3.5002577,3.2340171,3.494708,-2.7454295,-2.1113772,0.66902655
sub-499576_fdg_template_reg_mcalt_SyN_v20221013_1006,2.0148134,-3.7809832,-4.370481,4.602966,-2.283418,4.586268,-3.8592093,-9.098812,3.594663,-5.9779487,-3.304231,3.1969278,3.7699294,-2.4195385,-1.9008032,0.5492712
sub-372214_fdg_template_reg_mcalt_SyN_v20221013_1006,1.6502506,-4.0221395,-4.0326185,5.424027,-2.138438,4.9068136,-2.9015687,-9.577216,3.4140158,-6.2917747,-3.073402,4.1318097,3.3465798,-2.5405889,-2.1230528,0.41622555
sub-493249_fdg_template_reg_mcalt_SyN_v20221013_1008,1.555764,-3.795825,-3.989462,4.542898,-2.4000216,4.877639,-3.3973677,-9.103746,3.560191,-6.659924,-3.3905334,3.3371608,3.7012687,-2.6160777,-2.268096,0.7144009
sub-804850_fdg_template_reg_mcalt_SyN_v20221013_7,1.521128,-4.1233077,-4.083675,5.5458007,-2.046236,4.945281,-2.798671,-10.101307,3.5362654,-6.251875,-2.8744607,3.9044442,3.2437787,-2.338914,-2.3865309,0.35946447
sub-646875_fdg_template_reg_mcalt_SyN_v20221013_1004,1.5772252,-3.9041684,-3.8148992,5.0714087,-2.3435612,4.924719,-3.2390604,-9.502012,3.5492144,-6.634955,-3.3657603,3.520411,3.572344,-2.5190954,-2.2728431,0.43663228
sub-695177_fdg_template_reg_mcalt_SyN_v20221013_1007,1.71046,-3.831889,-4.4282074,4.7820535,-2.266613,4.7655287,-3.3050816,-9.322933,3.387544,-6.118201,-3.3701923,3.4748232,3.5481362,-2.4813867,-2.1398246,0.9022929
sub-738762_fdg_template_reg_mcalt_SyN_v20221013_1009,2.5443523,-3.8109767,-4.4799595,5.6960344,-2.4924815,3.9008808,-4.300445,-9.242035,3.6207964,-5.666337,-3.111362,2.8780026,3.2137275,-2.5313845,-2.1350734,0.019919492
sub-67912_fdg_template_reg_mcalt_SyN_v20221013_12,1.5020542,-3.5209231,-3.9372804,4.1401043,-2.4927313,4.551433,-3.7959704,-9.185557,3.342916,-6.5567894,-3.9230907,2.9787548,3.824604,-2.897268,-2.2761683,0.5060083
sub-860727_fdg_template_reg_mcalt_SyN_v20221013_123,1.6867234,-3.780523,-4.236009,4.80451,-2.4364815,4.71902,-3.3204074,-9.183728,3.426136,-6.159093,-3.499557,3.3400486,3.660821,-2.455477,-2.1452386,0.62640244
sub-653332_fdg_template_reg_mcalt_SyN_v20221013_120,1.8769565,-3.6971042,-4.4315066,4.434511,-1.9743134,4.8521543,-3.4375198,-8.934689,3.477301,-6.2476525,-3.155613,3.335983,3.7970178,-2.597635,-2.0731666,0.7892814
sub-873741_fdg_template_reg_mcalt_SyN_v20221013_12,1.5685705,-3.6511705,-4.0604787,4.3104467,-2.313594,5.009585,-3.5307686,-8.7793045,3.609905,-6.6091914,-3.3680766,2.9986918,3.7967377,-2.646174,-2.0452304,1.0538896
sub-560798_fdg_template_reg_mcalt_SyN_v20221013_12,1.8429831,-3.7790306,-4.451195,4.631437,-2.2553344,4.956061,-3.4016492,-8.997757,3.7276633,-6.3717113,-3.12371,3.2096472,3.7873821,-2.4712985,-1.8922524,0.7714001
sub-280393_fdg_template_reg_mcalt_SyN_v20221013_12,1.6943545,-3.6390593,-4.0513306,4.6640573,-2.2695057,4.806585,-3.2786708,-9.013829,3.4459116,-6.445037,-3.5882087,3.383814,3.7220628,-2.8153238,-2.0710225,0.7602716
sub-880509_fdg_template_reg_mcalt_SyN_v20221013_1011,1.6263269,-3.7187977,-4.104736,4.7767324,-2.1754327,4.9292955,-3.5192466,-9.18838,3.3951805,-6.4360304,-3.1926317,3.2920053,3.579462,-2.8651223,-2.1233425,0.5132545
sub-699264_fdg_template_reg_mcalt_SyN_v20221013_1005,1.7043997,-3.8405252,-4.212174,4.591188,-2.3621867,4.6902146,-3.4168231,-9.179833,3.4672685,-6.4978065,-3.152827,3.3225236,3.6648316,-2.5316274,-2.217704,0.63234305
sub-486389_fdg_template_reg_mcalt_SyN_v20221013_1008,1.6754775,-3.8010938,-4.239337,4.6999583,-2.2450435,4.860003,-3.1452014,-9.020461,3.2983477,-6.255433,-3.2981002,3.4234498,3.42964,-2.6420152,-2.0585659,0.89251345
sub-175331_fdg_template_reg_mcalt_SyN_v20221013_1007,1.4219007,-3.7623472,-4.1328406,4.4701114,-2.5246518,4.578549,-3.3607228,-9.575603,3.1978705,-6.315683,-3.6367946,3.2473867,3.4591677,-2.5030448,-2.0967333,0.45091665
sub-501189_fdg_template_reg_mcalt_SyN_v20221013_5,1.3553092,-3.519574,-4.1379476,4.2986655,-2.428984,4.7473774,-3.4646423,-9.374301,3.5214133,-6.443731,-3.5584996,3.1026692,3.5370524,-2.583413,-2.299954,0.84674907
sub-904129_fdg_template_reg_mcalt_SyN_v20221013_1006,2.477728,-3.113506,-4.2443986,4.7872553,-2.5315871,4.432199,-3.885503,-8.386578,4.0861835,-6.1359496,-3.543798,3.0717895,3.98081,-2.5019474,-1.8038149,0.8359279
sub-699812_fdg_template_reg_mcalt_SyN_v20221013_1007,1.6832343,-3.609355,-4.032366,4.0618415,-2.6178827,4.7709613,-3.5815063,-8.472752,3.5732849,-6.5703187,-3.647982,3.0210538,3.927407,-2.762856,-2.07058,0.83485365
sub-127805_fdg_template_reg_mcalt_SyN_v20221013_4,2.4764583,-3.373272,-4.252733,5.1344504,-2.534992,3.782994,-4.7455964,-8.858004,3.4252331,-5.687255,-3.9041924,2.8651216,3.7384481,-2.9810207,-2.4750378,-0.08196859
sub-608279_fdg_template_reg_mcalt_SyN_v20221013_6,1.7405058,-3.6873195,-3.8767529,4.660953,-2.409659,4.756375,-3.218725,-8.844667,3.4511666,-6.630823,-3.4651964,3.4748693,3.580164,-2.6097262,-2.0472448,0.80031407
sub-729273_fdg_template_reg_mcalt_SyN_v20221013_120,1.7366701,-3.7258716,-4.6239085,4.897418,-2.0922952,4.938726,-3.124211,-9.420405,3.6132565,-6.091617,-3.1087794,3.4031045,3.5482924,-2.4804225,-1.9791697,1.0366621
sub-695514_fdg_template_reg_mcalt_SyN_v20221013_6,1.6852089,-3.525723,-4.226523,4.4821033,-2.3633823,4.6240454,-3.4915361,-9.297049,3.4048302,-6.373652,-3.6100743,3.280999,3.7156265,-2.5408676,-2.0558245,0.7093759
sub-519930_fdg_template_reg_mcalt_SyN_v20221013_1010,1.7511753,-3.4490528,-4.0747514,4.205959,-2.4182558,4.6801786,-3.6529636,-8.5646715,3.5368242,-6.545328,-3.6477036,3.0662065,3.8253489,-2.94886,-2.1622536,0.9524554
sub-334852_fdg_template_reg_mcalt_SyN_v20221013_1006,1.6514206,-3.7786217,-3.9209008,4.572562,-2.073591,4.98722,-3.3524811,-8.896774,3.556192,-6.6079345,-3.1787066,3.1926272,3.6579423,-2.7130651,-1.9282676,0.7215056
sub-608080_fdg_template_reg_mcalt_SyN_v20221013_1009,1.7350655,-3.417433,-4.134472,4.363071,-2.4904103,4.6812115,-3.535271,-8.676284,3.5531294,-6.3057685,-3.4970808,3.0906918,3.8240626,-2.695949,-2.1606925,0.91534364
sub-616084_fdg_template_reg_mcalt_SyN_v20221013_120,2.0052502,-2.7793646,-4.3074,4.254715,-2.440881,4.4180765,-4.0628653,-8.061818,3.7990854,-5.9256015,-3.9085305,2.6229317,4.060541,-3.3704567,-1.9663807,0.67505515
sub-595429_fdg_template_reg_mcalt_SyN_v20221013_1008,1.8205673,-3.6004684,-4.2427936,4.4014044,-2.4786205,4.809741,-3.509787,-8.842368,3.6990244,-6.5650363,-3.4381053,3.0188565,3.7674387,-2.5713837,-1.952176,0.96696794
sub-557263_fdg_template_reg_mcalt_SyN_v20221013_1005,1.6937183,-3.7475533,-4.156521,4.6244545,-2.158893,4.8493037,-3.2618964,-9.118611,3.4143302,-6.3190207,-3.4010434,3.5281394,3.8174856,-2.6864395,-2.052264,0.5629682
sub-681310_fdg_template_reg_mcalt_SyN_v20221013_120,1.6020231,-3.7556655,-4.0726395,4.8293505,-2.384024,4.6559544,-3.307511,-9.341588,3.3106246,-6.3168526,-3.4312968,3.453112,3.4491367,-2.743963,-2.2060716,0.40782094
sub-288966_fdg_template_reg_mcalt_SyN_v20221013_123,1.8084958,-3.650889,-4.250071,4.465913,-2.2900708,4.8493767,-3.3696566,-8.787979,3.4762523,-6.38724,-3.26046,3.3569727,3.811206,-2.7556183,-2.0754647,0.776996
sub-413272_fdg_template_reg_mcalt_SyN_v20221013_5,1.7694124,-3.8832202,-4.0478,5.220531,-2.2233403,4.8304977,-3.0880609,-9.644783,3.541064,-6.2913404,-3.260797,3.5486498,3.372136,-2.297069,-1.9340017,0.6227129
sub-716144_fdg_template_reg_mcalt_SyN_v20221013_1009,1.5579278,-3.775724,-4.397627,4.9797645,-2.4804108,4.712489,-3.0232008,-9.752181,3.5299687,-6.2166176,-3.53153,3.6198602,3.4041903,-2.1307776,-1.7948077,0.9186529
sub-116610_fdg_template_reg_mcalt_SyN_v20221013_12,1.9853463,-3.5912294,-4.246885,4.5094347,-2.2662942,4.655675,-3.56147,-8.94315,3.6616678,-6.3387117,-3.4570863,3.1749625,3.7378175,-2.4977639,-1.8602947,1.0032413
sub-720184_fdg_template_reg_mcalt_SyN_v20221013_12,1.5766197,-3.954198,-3.8772373,4.8344884,-2.189455,4.9142013,-3.2549784,-9.124205,3.3233948,-6.4463487,-3.3479695,3.4073117,3.4544575,-2.7390413,-1.9504216,0.68020695
sub-704393_fdg_template_reg_mcalt_SyN_v20221013_1007,1.651852,-3.794092,-4.0133767,4.5799503,-2.4950013,4.590824,-3.175156,-9.366004,3.2599297,-6.461856,-3.502223,3.4843714,3.5215423,-2.394942,-2.0176554,0.6469255
sub-22668_fdg_template_reg_mcalt_SyN_v20221013_12,1.8246447,-3.9864516,-4.340796,4.9154015,-2.2435172,4.724211,-3.0257437,-9.858599,3.4669054,-6.406939,-3.3343692,3.6498952,3.4235895,-2.3294225,-2.0633938,0.6509967
sub-133189_fdg_template_reg_mcalt_SyN_v20221013_1009,1.57078,-3.8884885,-4.2893295,4.7691755,-2.32867,4.762153,-3.2901418,-9.21936,3.3184452,-6.166406,-3.3566601,3.4390166,3.5835783,-2.6687436,-2.287473,0.56092495
sub-927728_fdg_template_reg_mcalt_SyN_v20221013_120,2.064314,-3.2097235,-4.0353456,4.471181,-1.9874943,4.419885,-4.4722342,-8.411396,3.595158,-5.952218,-3.9699686,2.7943153,4.166205,-3.283583,-2.0253708,0.3941078
sub-4652_fdg_template_reg_mcalt_SyN_v20221013_1009,1.612006,-3.6002698,-4.0775576,4.3084044,-2.6867776,4.5025797,-3.453028,-8.984634,3.3617854,-6.3181615,-3.7853105,3.1991599,3.7675326,-2.5198326,-1.9762398,0.6697515
sub-497040_fdg_template_reg_mcalt_SyN_v20221013_1006,1.6834626,-3.5170734,-4.1795735,4.2139955,-2.3721993,4.686977,-3.6393125,-8.75164,3.4986284,-6.385117,-3.6084824,3.061752,3.7190096,-2.8649356,-2.062229,0.7042165
sub-69831_fdg_template_reg_mcalt_SyN_v20221013_1004,1.6859759,-3.6100264,-4.0643764,4.1363635,-2.5951922,4.700806,-3.6029716,-8.562801,3.5007117,-6.467537,-3.6146452,3.108851,3.8058186,-2.6323245,-1.9474214,0.91305923
sub-936252_fdg_template_reg_mcalt_SyN_v20221013_1005,2.2552483,-3.346301,-4.319579,4.6207976,-2.188617,4.620149,-4.041258,-8.371723,3.9442313,-6.3228006,-3.4134824,2.7981443,3.9359798,-2.80813,-1.8944398,1.0682107
sub-785912_fdg_template_reg_mcalt_SyN_v20221013_1006,2.244746,-3.7175395,-4.255874,4.9643097,-2.4157672,4.39614,-3.6807609,-8.956713,3.5852952,-6.0473504,-3.6017928,3.4416878,3.740701,-2.5243592,-1.906271,0.31492895
sub-68735_fdg_template_reg_mcalt_SyN_v20221013_5,1.492315,-3.878174,-4.231378,4.8628507,-2.368627,4.6354785,-3.1372523,-9.713051,3.315098,-6.159691,-3.4459023,3.6011462,3.3010008,-2.464586,-2.2272823,0.6257213
sub-164537_fdg_template_reg_mcalt_SyN_v20221013_1005,1.8237453,-3.6261382,-4.176121,4.574316,-2.194928,4.7305093,-3.5025535,-8.876284,3.4549108,-6.280505,-3.4444165,3.2514858,3.7122147,-2.8100646,-2.1274092,0.65377027
sub-819242_fdg_template_reg_mcalt_SyN_v20221013_120,1.6913112,-3.6761482,-4.0986476,4.5206084,-2.1171064,4.7612433,-3.533947,-9.031772,3.4191866,-6.423215,-3.369056,3.3612888,3.6861513,-2.906338,-2.1858263,0.5718236
sub-236231_fdg_template_reg_mcalt_SyN_v20221013_12,1.6464312,-3.651885,-4.2350407,4.507353,-2.364396,4.7006783,-3.5197947,-9.266355,3.5746348,-6.385607,-3.3983006,3.21895,3.6159284,-2.4850216,-2.1577024,0.75891656
sub-610376_fdg_template_reg_mcalt_SyN_v20221013_1009,1.7778038,-3.6827126,-4.467456,4.7234817,-2.2003946,4.823241,-3.3099022,-9.062596,3.5131001,-6.2847166,-3.3886847,3.454939,3.6784563,-2.5776315,-2.092241,1.0179005
sub-22970_fdg_template_reg_mcalt_SyN_v20221013_120,1.5489653,-3.0854962,-4.126895,4.327769,-1.9186232,4.7283583,-3.6435654,-9.1547,3.3199897,-6.3254056,-3.8954058,3.2271938,3.932079,-3.063798,-1.9316984,0.6722836
sub-841698_fdg_template_reg_mcalt_SyN_v20221013_1005,1.6649916,-3.8310308,-4.0830917,4.8987136,-2.2559514,4.7284894,-3.2291439,-9.375764,3.3341246,-6.278768,-3.3879247,3.5103056,3.4627006,-2.6569614,-2.1467216,0.3746308
sub-437830_fdg_template_reg_mcalt_SyN_v20221013_12,1.4389228,-3.8345728,-3.6527233,5.1508512,-2.2364147,4.777679,-3.0472996,-9.79272,3.254351,-6.399188,-3.482448,3.8057177,3.320289,-2.6881807,-2.183496,0.27304026
sub-854795_fdg_template_reg_mcalt_SyN_v20221013_1006,1.6979694,-3.8408978,-4.316285,4.8235817,-1.9559771,4.854357,-3.4370112,-9.301649,3.2087824,-5.9409313,-3.3747432,3.274505,3.398648,-3.1882942,-1.9762716,0.50593686
sub-521456_fdg_template_reg_mcalt_SyN_v20221013_1005,1.6629305,-3.5774405,-3.9548192,4.6113086,-2.344436,4.7247276,-3.4683318,-8.931105,3.5326743,-6.344261,-3.5738075,3.2241724,3.7291403,-2.6676283,-2.0050972,0.68207747
sub-434698_fdg_template_reg_mcalt_SyN_v20221013_1006,1.842578,-3.45988,-4.2129736,4.498956,-2.142863,4.8377438,-3.7090127,-8.996413,3.4999485,-6.2440863,-3.5093112,3.0870209,3.8524675,-3.0401332,-2.1774426,0.69447863
sub-748780_fdg_template_reg_mcalt_SyN_v20221013_1009,1.7777874,-3.6370413,-4.316768,4.7780056,-2.016228,4.8314524,-3.5593235,-9.087629,3.4225063,-6.2681007,-3.1403484,3.3193917,3.54471,-2.8768978,-2.1513548,0.6412827
sub-521842_fdg_template_reg_mcalt_SyN_v20221013_1009,1.5971886,-3.7909582,-4.267038,4.6792464,-2.1967745,4.8879094,-3.1912026,-9.107379,3.3777049,-6.263366,-3.3547227,3.5206156,3.6531503,-2.736863,-2.1327775,0.82132655
sub-214035_fdg_template_reg_mcalt_SyN_v20221013_6,2.2620645,-2.8673081,-4.5499883,4.2662554,-2.502423,4.485781,-3.9210138,-8.494281,4.0120873,-6.0512724,-3.5987597,3.1087656,4.102231,-2.9364235,-1.8909798,1.007277
sub-260080_fdg_template_reg_mcalt_SyN_v20221013_5,1.7736312,-3.5869586,-4.43734,4.646686,-2.087473,4.7031527,-3.5117579,-9.261307,3.4687312,-6.034965,-3.3831048,3.2122023,3.5594435,-2.996333,-1.9510943,0.8763037
sub-821918_fdg_template_reg_mcalt_SyN_v20221013_12,1.6358562,-3.7986057,-4.180987,4.9594636,-2.2210312,4.7691364,-3.3094485,-9.390092,3.2920806,-6.1762915,-3.4133239,3.4656072,3.4802752,-2.8241818,-2.0752072,0.45545137
sub-702413_fdg_template_reg_mcalt_SyN_v20221013_1007,2.3233964,-2.948803,-4.185347,4.4857025,-2.2672062,4.1533256,-4.3860054,-8.5244465,3.617608,-5.9524302,-4.129653,2.78888,3.9649472,-3.2340298,-2.1783726,0.48620868
sub-293216_fdg_template_reg_mcalt_SyN_v20221013_1007,2.2966588,-3.2334237,-4.943969,5.010716,-2.0353837,4.6301217,-3.7455835,-8.618593,4.0796647,-5.956128,-3.0715964,2.8357673,3.6773326,-2.6985307,-2.0350816,1.1858466
sub-539397_fdg_template_reg_mcalt_SyN_v20221013_12,1.4501187,-3.9031763,-3.8329134,4.918123,-2.2231107,4.9224277,-3.1632972,-9.431418,3.3039699,-6.4611273,-3.248601,3.6305106,3.3111923,-2.752768,-2.3170047,0.4922164
sub-932248_fdg_template_reg_mcalt_SyN_v20221013_5,1.7299448,-3.7732775,-4.4423747,5.1198745,-1.9367043,4.677285,-3.3791785,-9.725055,3.1380234,-5.8056197,-3.3364701,3.7589583,3.3027694,-2.8351288,-2.2802422,0.38260365
sub-899846_fdg_template_reg_mcalt_SyN_v20221013_1006,1.6632802,-3.648839,-4.070712,4.56841,-2.4779997,4.743061,-3.4050176,-8.906174,3.4421918,-6.4874563,-3.533634,3.2229583,3.7789028,-2.5134478,-1.9756509,0.7288769
sub-909044_fdg_template_reg_mcalt_SyN_v20221013_1007,1.6074136,-3.8793035,-4.15769,5.0127287,-2.2567425,4.7982,-3.2031817,-9.343479,3.4290342,-6.1006045,-3.3530586,3.616979,3.4477224,-2.486349,-2.0503426,0.692654
